%YAML:1.0
ANN: !!opencv-ml-ann-mlp
   layer_sizes: !!opencv-matrix
      rows: 1
      cols: 3
      dt: i
      data: [ 80, 160, 28 ]
   activation_function: SIGMOID_SYM
   f_param1: 1.
   f_param2: 1.
   min_val: -9.4999999999999996e-01
   max_val: 9.4999999999999996e-01
   min_val1: -9.7999999999999998e-01
   max_val1: 9.7999999999999998e-01
   training_params:
      train_method: BACKPROP
      dw_scale: 1.0000000000000001e-01
      moment_scale: 5.0000000000000003e-02
      term_criteria: { epsilon:1.0000000116860974e-07, iterations:500000 }
   input_scale: [ 9.7283613014232735e+00, -7.3379852835647430e-01,
       6.5831913598298613e+00, -6.6235499786039698e-01,
       9.7203111020236435e+00, -8.6734579121538413e-01,
       6.4198015345922155e+00, -6.4255724237619871e-01,
       4.0203217400259881e+00, -7.7898329322354154e-01,
       7.8388764237436011e+00, -7.4396861289570204e-01,
       8.1311804862012753e+00, -6.8522834691074397e-01,
       7.9982995233201759e+00, -6.6576736814133708e-01,
       7.5123748021635679e+00, -6.0351103065186840e-01,
       6.6715965047885648e+00, -5.3152423551785799e-01,
       3.4093273635102213e+00, -5.9792900596659782e-01,
       2.1399748936433195e+01, -1.7547141563749366e-01,
       3.6892555556922218e+01, -2.0882825711335859e-01,
       1.9114525759341046e+01, -1.9596172592230432e-01,
       1.4897149675787233e+01, -1.6295346066569824e-01,
       6.3680653822534294e+00, -4.8171335626315681e-01,
       9.7872352929859437e+02, -2.9656491293029670e-02,
       2.9239158510707779e+00, -7.0019491683465218e-01,
       1.9983631891402599e+01, -1.4848939961293442e-01,
       4.2723619998623503e+00, -5.9856665451076518e-01,
       4.0944789381151816e+00, -8.3098654031484542e-01,
       1.3554696523789822e+01, -6.9060485641863789e-01,
       2.8703076442677311e+01, -7.5033266245049468e-01,
       1.8783367222074791e+01, -6.7012895480050572e-01,
       4.6760500566621443e+00, -6.3565671079623076e-01,
       4.1958691316286956e+00, -9.7607267028553824e-01,
       3.6776620281476258e+00, -7.8787735194807773e-01,
       1.0442974519356818e+01, -6.1256644025403728e-01,
       4.0802960905973748e+01, -6.4616142810186550e-01,
       2.0794825328151703e+01, -5.6117334382684081e-01,
       5.4063691486285546e+00, -1.1120527840780523e+00,
       1.1267526229680048e+01, -1.1884844224890261e+00,
       1.6726827476666614e+01, -1.2688539754185997e+00,
       2.3181508811652076e+01, -1.3693786542094764e+00,
       2.6676122404547527e+01, -1.2624258301547535e+00,
       3.1065862220509725e+01, -1.2774004380803019e+00,
       2.8242196544578722e+01, -1.1807834256468506e+00,
       2.2178798091027861e+01, -9.9740553376894303e-01,
       2.3353696478958277e+01, -1.0697549819776071e+00,
       2.2870268160592918e+01, -1.0629757444073569e+00,
       3.1469825026599114e+01, -4.3707459731779558e-01,
       1.8215845075276523e+01, -4.9975965467024941e-01,
       1.1428462519498970e+01, -6.4858616477679742e-01,
       8.8987645174517969e+00, -6.9792542493663334e-01,
       1.7172007011457406e+01, -8.0238918314666152e-01,
       1.7644839873829259e+01, -7.4814434895576343e-01,
       1.4794048160798674e+01, -7.7794110048547338e-01,
       1.3170642220774672e+01, -8.1720350806353548e-01,
       1.0953343440794470e+01, -8.0380292044816515e-01,
       1.2188531762563004e+01, -9.1428378507800445e-01,
       5.0973652349319112e+00, -9.1862502327212181e-01,
       7.7129200803937561e+00, -1.2051536120180357e+00,
       8.5735677123390932e+00, -1.1517673413493652e+00,
       1.2664087287017955e+01, -1.0699013789806648e+00,
       1.4389094807552466e+01, -9.8032454687621251e-01,
       1.6531835669780573e+01, -1.0264771042642471e+00,
       1.3637975577584287e+01, -9.1838039962159579e-01,
       1.3248988092759753e+01, -8.2657399760729833e-01,
       1.3494811048498351e+01, -8.1456058962614930e-01,
       6.1604601595082178e+00, -7.6636954958949499e-01,
       5.0184702108958410e+00, -6.3874646689829895e-01,
       7.6093801511145909e+00, -9.3872037882302606e-01,
       7.3952319136688152e+00, -9.4428916010850139e-01,
       1.0512215503860252e+01, -9.0934453241303870e-01,
       1.1341061352027046e+01, -8.8048397454373761e-01,
       1.3505282167647852e+01, -9.7826504631121647e-01,
       1.2765203403485362e+01, -9.5937768464409179e-01,
       1.2540504939091898e+01, -9.6102623322192748e-01,
       1.0243752548889873e+01, -8.0629657020064671e-01,
       5.5974477549418751e+00, -8.6531896497880323e-01,
       9.5514628982188814e+00, -5.2199060513057916e-01,
       8.0850620353048619e+00, -8.0166014608892122e-01,
       7.8501414672455399e+00, -8.8185673830801781e-01,
       1.3784118771696299e+01, -9.2396893525042445e-01,
       1.2550250495511870e+01, -8.3754491519780438e-01,
       8.9411881266506334e+00, -8.0524511918076525e-01,
       9.1268828032399441e+00, -8.7543174639468824e-01,
       1.1368656260946745e+01, -1.0192055136127165e+00,
       1.0438185655683135e+01, -9.7223362951892123e-01,
       4.6875810330898373e+00, -1.0843437311107418e+00 ]
   output_scale: [ 1.0526315789473684e+00, 0., 1.0526315789473684e+00,
       0., 1.0526315789473684e+00, 0., 1.0526315789473684e+00, 0.,
       1.0526315789473684e+00, 0., 1.0526315789473684e+00, 0.,
       1.0526315789473684e+00, 0., 1.0526315789473684e+00, 0.,
       1.0526315789473684e+00, 0., 1.0526315789473684e+00, 0.,
       1.0526315789473684e+00, 0., 1.0526315789473684e+00, 0.,
       1.0526315789473684e+00, 0., 1.0526315789473684e+00, 0.,
       1.0526315789473684e+00, 0., 1.0526315789473684e+00, 0.,
       1.0526315789473684e+00, 0., 1.0526315789473684e+00, 0.,
       1.0526315789473684e+00, 0., 1.0526315789473684e+00, 0.,
       1.0526315789473684e+00, 0., 1.0526315789473684e+00, 0.,
       1.0526315789473684e+00, 0., 1.0526315789473684e+00, 0.,
       1.0526315789473684e+00, 0., 1.0526315789473684e+00, 0.,
       1.0526315789473684e+00, 0., 1.0526315789473684e+00, 0. ]
   inv_output_scale: [ 9.4999999999999996e-01, 0.,
       9.4999999999999996e-01, 0., 9.4999999999999996e-01, 0.,
       9.4999999999999996e-01, 0., 9.4999999999999996e-01, 0.,
       9.4999999999999996e-01, 0., 9.4999999999999996e-01, 0.,
       9.4999999999999996e-01, 0., 9.4999999999999996e-01, 0.,
       9.4999999999999996e-01, 0., 9.4999999999999996e-01, 0.,
       9.4999999999999996e-01, 0., 9.4999999999999996e-01, 0.,
       9.4999999999999996e-01, 0., 9.4999999999999996e-01, 0.,
       9.4999999999999996e-01, 0., 9.4999999999999996e-01, 0.,
       9.4999999999999996e-01, 0., 9.4999999999999996e-01, 0.,
       9.4999999999999996e-01, 0., 9.4999999999999996e-01, 0.,
       9.4999999999999996e-01, 0., 9.4999999999999996e-01, 0.,
       9.4999999999999996e-01, 0., 9.4999999999999996e-01, 0.,
       9.4999999999999996e-01, 0., 9.4999999999999996e-01, 0.,
       9.4999999999999996e-01, 0. ]
   weights:
      - [ 1.0438397109831914e+00, 1.1739178236649275e-01,
          -4.6633963947376728e-01, 3.1570506709774776e-01,
          8.4235703271252238e-01, -1.9573225662675081e-01,
          -5.1310444341154016e-01, -5.4871139906166777e-01,
          -2.4672088764167088e-01, 5.1107643698667782e-01,
          6.8426004444793509e-01, -6.1807039735034798e-02,
          -3.9577175711090579e-01, 3.3538489573414110e-01,
          4.7967890090361187e-01, 1.4817724105144525e-01,
          8.0975982037978311e-01, 4.5121504037706733e-01,
          -2.0434376372703189e-01, 2.5261333853357604e-01,
          -7.5767815773636027e-01, -6.9102296880953951e-01,
          -2.4651703829620494e-01, 2.2292086786775353e-01,
          -1.3210084962102542e-01, -1.0231721803075434e-01,
          -1.2710906263144900e-01, -4.2519962035736665e-02,
          -6.2286794601401796e-01, -9.9053823489159809e-02,
          -3.0785319897249513e-01, 5.0554059784625260e-01,
          2.4548048734759298e-01, -2.7372600172457062e-01,
          -3.0828613376510089e-01, -3.1783983453374398e-01,
          -1.9645847478114323e-01, 1.4133431022582535e-01,
          -2.0886413375812171e-01, -2.7689404996258643e-01,
          8.2992981070452776e-02, -1.9241338814103928e-01,
          2.8843311637945929e-01, -1.0325122417744964e-02,
          -6.5813502759340936e-01, 4.1292661419828081e-01,
          1.9655091942803879e-01, -3.7509159919706647e-01,
          -4.2368398639949961e-01, -2.6592051114334495e-02,
          -7.8745358997348547e-01, 1.3591329531239285e-01,
          1.8611821672866707e-01, -6.0331093174896222e-01,
          -3.8072954394558500e-01, -5.8276135554648978e-01,
          4.0651524833751179e-01, 1.1999642434181094e-01,
          2.1267111067266145e-01, 3.9902237579283217e-01,
          -7.5098561494130051e-02, 3.4007915741247918e-01,
          4.0532458534066113e-01, -5.3523430821206131e-03,
          1.8885467685149901e-01, -6.9360075183499889e-03,
          1.9603360646131968e-01, 5.1521757867824369e-01,
          -3.5353308841284814e-01, 8.1558045392490075e-01,
          1.7887319589896075e-02, -3.1252971730196810e-01,
          6.3116641395866224e-01, 8.1137668602064145e-02,
          -1.9982926035497131e-01, -1.3159656417678639e-01,
          8.1419191161580501e-02, 6.6660988674562854e-02,
          4.8568693489218462e-01, -2.6149594354497085e-01,
          -4.4888076198114962e-01, -1.1665597385236695e+00,
          4.5590820595969855e-01, -6.9379541835591907e-01,
          3.3505458366767499e-01, -5.0967036562784651e-01,
          -1.6965520179779972e-01, 3.4710750197561252e-01,
          -5.7666038466804029e-02, 6.4130149126053559e-01,
          -3.5939364322565948e-02, -6.8276338575851258e-03,
          5.6437229072877926e-01, -4.5861364811359578e-02,
          3.2975603674336808e-02, 1.4194987284236855e+00,
          6.3478947644370565e-01, 2.1898988161182403e-01,
          9.8373001958710016e-02, -6.0283506279224752e-01,
          2.9882086465578211e-01, -1.0879808145170222e-01,
          -1.4246737262086795e-01, 4.9499017323203059e-01,
          -5.3534045756601722e-01, -1.2724655692760338e+00,
          2.9492761819055419e-01, 1.4760176527340485e-01,
          5.6406248736650655e-01, -1.9328448255461608e-01,
          3.6533871560944176e-01, 2.6200278737788196e-01,
          -2.5450997061615660e-01, 3.9772914157277267e-01,
          -2.9745927025371921e-01, -2.8635617381195827e-01,
          -2.5413795220430901e-01, -3.3144836881070289e-01,
          3.6381089068518896e-01, 7.3625367424793187e-01,
          2.0009747859580301e-01, 2.1610250942249859e-01,
          4.8794715348236449e-02, 1.1406107858095134e+00,
          4.6081678008764332e-01, -6.7240901330164016e-01,
          -1.1721785640520954e-01, -4.8140070529197644e-02,
          -1.6922421338438307e-01, 2.7986582662159704e-01,
          -4.8802261934224261e-01, -3.8480492000362088e-01,
          -4.3670053431687744e-01, -1.3900098294207047e-01,
          7.8819386080440157e-01, 3.9392380157088742e-02,
          3.3029785873072459e-01, -1.2216048741603061e-01,
          3.5253423001749301e-01, -5.8509302186204648e-01,
          -4.4258073109806811e-01, -3.4696026242749128e-01,
          -9.8071790907067122e-02, -7.0478429117046038e-01,
          -3.3582345697057947e-01, -1.2433030640915461e-01,
          -5.8350556260277228e-02, -1.5828144796135932e-01,
          -2.0648391885601622e-01, 2.8042907776640913e-01,
          4.6444913011589201e-01, -6.6917865328887466e-02,
          -6.8698403129406560e-01, -8.4157355978592349e-02,
          -8.6598334077472375e-02, -4.4026294938259047e-01,
          -3.0954037575137855e-01, 5.5738991563780108e-02,
          -6.6681518110702764e-01, -2.1137702855344762e-01,
          -4.1372431623099204e-01, -1.4975960697953919e-01,
          7.5607693023201583e-02, -2.1154847642434912e-01,
          -2.9404178978417411e-01, 3.8340706926546236e-01,
          6.4778217812737893e-01, -6.2390382233691311e-01,
          1.5135825663848765e-01, -4.6582814251996202e-01,
          3.2853079300940918e-01, 2.6552578971283054e-02,
          -5.3360509070313111e-01, -3.2344104073065094e-01,
          2.5256759173186599e-01, -1.2499289561353590e-01,
          5.7647652971404895e-01, -8.2644129004972566e-01,
          5.3883431281593630e-01, 1.6340646821065269e-01,
          -5.1599611889566334e-02, 2.0962650814334535e-01,
          5.8241014421204473e-01, 3.9845859785131799e-01,
          -2.5861880762980016e-01, -5.0476299787318246e-01,
          -1.3548150338705189e+00, -7.7346756152761964e-01,
          -6.0571695938026848e-01, 7.7329755125374849e-02,
          5.6474852341671178e-01, -5.0675402753330923e-01,
          -1.0194510469408227e+00, 2.8171322971410034e-01,
          2.2756064108570043e-01, 3.8132115757041829e-01,
          -2.0441614037444536e-01, 3.4325841856375761e-01,
          3.5576248243962183e-01, 1.2158945528136451e-01,
          2.8797870157652922e-01, 5.5212578758844844e-01,
          -1.4141787194932179e-01, 1.2248099944852243e-01,
          -7.9923972397525425e-02, -7.8743469377313913e-01,
          5.3741189843894765e-01, -2.5755954452008623e-01,
          3.7822977847797740e-01, -5.5018101076250847e-01,
          3.0769596939127319e-01, 1.4708879924823023e-01,
          -6.4295351389477429e-01, -2.5231452943101734e-01,
          -6.8386981821022708e-02, 8.0398041344538118e-01,
          -2.6773623285713022e-01, -5.6456737159724846e-01,
          4.4550265526673416e-01, -3.4989702565886255e-01,
          -2.9286351418073692e-01, -8.4194697609421243e-01,
          -1.8168027724777600e-01, 6.1224173611190236e-01,
          1.1801571335912023e-01, -5.3581901798152076e-01,
          -7.7856490956646640e-01, -1.4245163300941088e-01,
          5.6075452975775231e-01, -3.1572920822948786e-01,
          2.2376274885458766e-01, -1.3756448888129463e-01,
          2.1087089663857322e-01, 3.4437037299604267e-01,
          3.6032269318731924e-01, 2.9736167677028336e-01,
          -5.5466543588766581e-01, 8.2344241953368402e-01,
          -1.5472292226502762e-01, 3.8283019706239158e-01,
          3.4373820727029814e-01, 1.2802969881239654e+00,
          -8.7316642089061269e-01, -4.1384822345234018e-01,
          2.9380720072212324e-01, -2.2830254803828107e-01,
          6.1271401355480071e-01, 4.0748899526731558e-01,
          -5.0672018379357274e-02, 2.5653149375507495e-01,
          7.6623972784746947e-02, 8.4055510392705679e-01,
          1.9756707524610273e-01, -5.2746916677582967e-02,
          2.8104665031889492e-01, -4.8186674392534407e-01,
          -8.6555350181956661e-03, -5.7126071281654964e-02,
          -1.6837915064000530e-01, 3.1172776003578245e-01,
          -2.2946326383281887e-01, -2.8150496655252349e-02,
          -4.3221920631795974e-01, 7.3710514600391008e-01,
          4.5024422236945294e-01, 3.9629012015211984e-01,
          4.6952255448827956e-01, 3.4348539753759438e-01,
          1.5555555020618522e-01, -2.0307415305957602e-01,
          -3.9636601155118173e-01, 6.5353144834217480e-01,
          -9.7446596952905984e-01, 7.3155233048972312e-01,
          1.0207820468083894e-02, 4.8910649532504269e-01,
          -1.8360749668985327e-01, 4.1538612247789375e-01,
          -5.0438521679253501e-01, 2.9643219371565227e-01,
          -2.9218887559940582e-01, 2.6052407905804431e-01,
          9.2065384591110289e-01, 5.9848327445950970e-02,
          1.5782865246298547e-01, -1.3086491774999401e-01,
          7.3266759745679166e-01, -4.4368355148085370e-01,
          3.2539726429158811e-01, -7.5112867549988027e-01,
          1.2733239971233914e-01, 1.0645476409981614e-02,
          1.3015120881916947e-01, 5.1183795123170062e-01,
          -1.2411204441599329e-01, 3.4793753735591383e-02,
          -1.9092954444615706e-01, 5.3928031219108874e-01,
          3.2791237281628888e-01, 1.4562369147722647e+00,
          -3.9211664266533935e-01, -3.9341077002025593e-01,
          3.1312526046061895e-01, 1.0354345900770401e+00,
          -1.6024330920475946e-01, 4.7552127571474401e-01,
          -3.2422076281744941e-02, -6.1920197979632174e-01,
          1.5031440394850162e-01, -2.0083833083640237e-01,
          -4.7144072031116352e-01, -7.7934404866582513e-02,
          4.2914033155535414e-01, 7.3876798210152017e-01,
          4.4845311822131105e-02, 5.7930530297713967e-01,
          -9.1313306077678055e-02, -1.5415799919071749e-01,
          -5.1892908561766316e-02, -4.6255469657355569e-01,
          -1.4399452444329623e+00, -4.3522733669225827e-01,
          2.2143919164473955e-01, 2.3840971436330238e-01,
          9.3931762059770185e-01, -6.3047680230220038e-01,
          -7.3964286548885194e-01, -6.7031733857308018e-01,
          -1.2585506337962829e-01, -1.5431470092875614e-02,
          6.1899771885435620e-02, 1.8874800396320482e-01,
          3.6054045203681406e-01, 2.9146198776034238e-01,
          4.6824560468044896e-01, -4.2538022004162196e-01,
          -1.6261158623122743e-01, -2.4239878876293721e-02,
          -1.0715846346911166e+00, -5.1314243916322733e-01,
          -1.1995228993431724e+00, -2.4621754422458841e-01,
          8.5666016268578848e-01, -3.4151741427116095e-01,
          6.6070912541881344e-01, -1.1125132141225003e-01,
          2.9836876474280077e-01, 3.9350099061396487e-01,
          -5.7281080161597653e-01, 5.1399429100243965e-01,
          -3.4383900052130439e-01, 8.0961100444899126e-01,
          -3.0679387126687052e-02, -4.2992302397460214e-01,
          1.1289585201420196e-02, -5.7750685927017420e-01,
          1.0137225669349712e+00, 9.9157358071069096e-02,
          3.8026561733944853e-01, 8.4364658017083649e-02,
          7.0163517070382864e-01, -3.0794067079954535e-01,
          5.7323036501381697e-01, -4.0619812828732574e-02,
          2.5505037500625094e-01, -4.6896889445516809e-01,
          -1.5924514605511680e-02, -4.6733572658517264e-01,
          1.3416287030475235e-01, -7.4705500688273585e-02,
          -3.5662476415370259e-01, -1.7973478098982823e-01,
          -1.1481703969840716e-01, -1.1938714949923171e-02,
          4.6712898397061881e-01, -4.3599043879360290e-02,
          5.8727588848120893e-01, 5.7397763459599217e-02,
          1.3406517256995923e-01, -7.4455793536090165e-01,
          7.2785561754963257e-02, -3.1393449901750431e-01,
          -8.8493277469674114e-02, 1.7506458975824074e-01,
          3.3431229975839599e-01, 9.2452658733176196e-01,
          -2.3205903343124737e-01, 3.5863399426943721e-01,
          -2.9175161200294764e-01, 2.2820058335964044e-01,
          2.6579932043422688e-01, 1.1779700229391829e-01,
          1.0366363424929956e+00, 5.0714902990033905e-01,
          4.5593178383986127e-01, -2.5950613524304295e-01,
          4.6832254150797581e-01, 3.4163337101588656e-02,
          2.4681313590438300e-01, -5.3906224292374272e-01,
          4.0472007596522308e-02, -1.0641867057555048e+00,
          -8.2791764688819292e-01, -1.1422601426663805e-01,
          -3.1730956421113499e-01, 7.9971308716458536e-02,
          -1.1057049040860038e-01, -1.6816008238566668e-01,
          6.9510915359285552e-02, 3.4408088482992505e-01,
          6.2852238947229383e-02, -8.0664576767697493e-01,
          1.9128141024235917e-01, 4.1803348580771821e-01,
          6.2845684808208804e-02, 3.2532853615485385e-01,
          -8.0305860448630095e-01, 3.9803791212179951e-01,
          -1.3703578475717151e-01, -2.0190305001582531e-02,
          -6.4834139786826517e-01, -1.7586538336268859e-01,
          -1.6887462304314557e-01, -2.8418080918702926e-01,
          -7.6692981551186101e-01, -1.3534544781343574e-01,
          7.1407144752307583e-01, 4.4230133931520249e-01,
          -1.6030553978075021e-01, 2.0588770718560989e-01,
          5.3878791742459142e-01, 3.5603234492613456e-01,
          -1.1606834643199880e-01, 6.9982643997729888e-01,
          4.4662178346781284e-01, 1.7106977234564152e-01,
          3.5936680886688493e-01, -4.4150043453763449e-01,
          4.2406515042229453e-01, -4.2260444945046260e-01,
          2.2699371849578903e-01, 1.8094822499741184e-01,
          5.8509939593314068e-02, 1.3809161706315295e-01,
          -7.3159765808624003e-02, 8.1839475011806911e-02,
          4.8714998864338339e-02, 5.5652247625810847e-01,
          -2.5699724089868925e-01, -1.7291736583846415e-01,
          4.8375447972990482e-01, -2.8066669866634519e-01,
          -2.7119019564592406e-01, 5.2788184117011317e-03,
          7.4674592333500378e-01, -3.7286038775394736e-01,
          3.1620468941453334e-01, -1.7914325375750159e-01,
          5.5486850505355445e-01, 5.7147947671435517e-01,
          -5.1674407278444303e-03, 3.3966303740517312e-01,
          -3.8733726398551646e-02, -5.1004087872281507e-02,
          -1.1820010237207602e-01, 1.9021621096891658e-01,
          3.7471310533116386e-01, -3.7497722160402347e-01,
          -3.1110578670952016e-01, 8.9599739857557092e-02,
          -3.6315280758542512e-01, 7.5820139180756829e-01,
          -3.1471182247339696e-01, 2.1269123744307530e-01,
          -3.6045445158316430e-01, 1.2849687498364767e-01,
          -2.3584752220836153e-01, -3.7531872172071806e-01,
          -4.5959014786591623e-01, 5.4506011950570321e-01,
          -2.8893341021165528e+00, 1.0879145228573759e+00,
          -1.0704709762501186e+00, 1.3095124426993196e-01,
          1.2360403142112765e-01, 2.7011083942952724e-01,
          -3.4936058703256617e-01, 1.0031846799553030e+00,
          6.8675994131095916e-02, -8.8440279627343354e-02,
          1.3672295779138904e-01, 9.4030965701300262e-02,
          -9.4362688371369119e-01, -1.0491247597582416e-01,
          -5.1856352818547302e-01, 1.3710252906847926e-02,
          -7.0307823981655782e-01, -4.0904315791733775e-01,
          8.5827412253471458e-01, 6.2762918022147673e-01,
          -4.6770284584379646e-01, 6.9118672175627324e-02,
          -6.0287843051569789e-01, -3.8074735443583141e-02,
          -8.6434556406976737e-01, 7.2619733552004392e-02,
          -8.3990297709405648e-01, 2.9610895897555681e-02,
          -3.6944399877380907e-01, -8.5760621501927825e-01,
          -9.0706103710830421e-01, -1.7235400231343217e-02,
          6.0735124728982577e-02, -4.1046677309595619e-01,
          3.0228302899878934e-01, 1.0551635575853542e+00,
          -8.3364492620010722e-01, -1.0350826224576595e-01,
          -3.5613341031998158e-01, 1.3508878520979617e-01,
          -1.9596722391234642e-01, 7.1597457113313900e-01,
          1.9612897266358294e-02, 7.3698885991824017e-02,
          1.7121360687109910e-01, 1.0168477192800340e+00,
          -2.0225545269578721e-02, 6.3739807460899955e-01,
          4.6064278945629905e-01, -1.1091103488592475e+00,
          -3.5495016015562292e-01, -3.3997354660643603e-01,
          -3.8049333342258372e-02, -7.7972940195847995e-02,
          6.5915830136911643e-02, -1.4976915913436650e-01,
          2.4060614272064357e-01, -1.3185571227884485e+00,
          -1.9378673207099045e-01, -2.9442604378135945e-01,
          -2.2594358008282234e-01, -9.1171628680409933e-01,
          2.3971454836003403e-01, -6.2226091947276219e-01,
          -2.5973384836160923e-01, -1.6735991597563332e-01,
          -1.3191100210090936e+00, -1.8096812135197801e-01,
          -1.3554162459249836e-01, -1.5682010260368159e-01,
          -2.6250589089661708e-01, -1.0983038825224338e-01,
          -1.0886696455144981e-01, -3.3994121975365553e-03,
          -5.4224030559443338e-02, 1.1088755963795631e-01,
          2.9021421881874765e-01, 1.2868506954238718e-01,
          8.3543795050700431e-01, 2.9607121650441320e-01,
          3.6814971225395682e-01, -1.0394998530002024e-01,
          -5.1827315979463529e-01, 4.1553901983896813e-01,
          -4.6373970358890887e-01, 2.3856598495320302e-02,
          1.1797596295565049e-01, -8.4092787415014569e-01,
          2.6591390223491548e-02, 1.9515668813201850e-01,
          -3.8061530134754012e-01, 5.0869635570255856e-01,
          -2.4664581880815405e-02, -8.3863617847439009e-01,
          1.4995352986101168e-01, -1.7135377997512474e-01,
          1.5709086224559674e-01, 3.6170290592954762e-01,
          -4.8536983898536284e-01, -3.0523470874659131e-01,
          -1.5638896761203305e-01, -3.7864956547127981e-01,
          5.3731395301940921e-01, 3.8307542283808310e-01,
          -7.3443964963828254e-02, -4.5710920831195108e-02,
          -1.2142097346822525e+00, 2.3717213763219186e-01,
          1.0869473327296815e+00, 6.9422659842856782e-01,
          2.5452918160666194e-02, -8.5336685833372630e-02,
          -5.0946676960383996e-01, 5.0250241608510104e-01,
          3.7397051322170188e-01, 5.7669349074686482e-01,
          -3.0133152163793492e-01, 1.8056040329433601e-01,
          -2.7653787786523926e-01, 5.0487090056407891e-01,
          2.7165839032782152e-01, -3.8027092387906392e-01,
          1.0505071085373094e+00, -4.1590843166990726e-01,
          7.4293932548972208e-02, -9.5847861855338823e-01,
          1.0532471395055223e+00, 1.0071492931669025e-01,
          7.0607202983982220e-01, -1.7950355674866811e-01,
          -1.0879741579663442e-01, 1.8392811755526453e-01,
          1.4435607979264531e-01, -5.6921128232257245e-01,
          -1.4846671805919684e+00, -2.2211314613881356e-01,
          -2.4509507387460680e-01, 4.8188383561503856e-01,
          -1.7205073308107535e-01, -2.8028511929497252e-01,
          4.8707826798456960e-01, -5.2557860412324042e-01,
          -3.3857427426510378e-01, 1.9957067412009788e-01,
          3.4050935238192241e-02, -4.9790706596095102e-01,
          -3.7698148038979068e-01, -2.3073373014351511e-01,
          4.3228778098409043e-01, -2.7961189148639881e-01,
          7.2343848168306113e-01, -1.7933657040315283e+00,
          -3.8544024072986360e-01, -4.2515039534963400e-01,
          -4.5036569154582046e-01, -3.5551529602025245e-01,
          -1.6247324912560604e-01, 1.5577376999859499e-01,
          -5.8229640125683291e-01, 2.6183705558181303e-01,
          3.8265313208828942e+00, -3.5937628322100484e-01,
          -1.0226478729041957e+00, -1.5990717960444198e-01,
          -3.6784826593478502e-02, -2.5970772005827186e-01,
          3.7252691747058347e-01, -2.1909442849063718e-01,
          -2.5272887630337110e-01, -4.1050583442673996e-02,
          1.2157030944821035e-01, 7.7417208669395721e-02,
          -1.0271167291087539e-01, -4.4733897149733487e-01,
          -8.5502071424425974e-01, -3.6108464159493925e-01,
          7.9412766741656837e-01, 2.8046111240234334e-01,
          2.4948499220226691e-01, 3.4603704110808792e-01,
          2.0023724499216595e-02, -3.6239613391048066e-02,
          -5.5902863253519597e-01, 5.4409989519053414e-01,
          -1.2849908168362684e-01, 3.2982375417310783e-01,
          4.8318890694012850e-01, 1.2289859310433945e-01,
          8.5573867436688578e-01, 2.8140716647188396e-01,
          5.7562197124572345e-01, -7.2154787956246136e-01,
          3.6153204794627275e-01, 2.2448065876390216e-01,
          -2.3149286542506120e-01, 4.0056928488329496e-01,
          -6.8000595732936242e-01, -5.8244075335718064e-02,
          3.4120466552823003e-01, 4.0170277747357652e-02,
          -2.5562894214934906e-01, 7.4921876714984528e-02,
          5.3125032238774121e-02, -1.1402757056429913e-01,
          2.4850641708489260e-01, -2.7801669131515572e-01,
          -4.2239416798480628e-01, -2.9784526824118651e-01,
          -7.6281315843319419e-01, 7.8459619344151998e-01,
          -3.5218324116879896e-01, -2.5215091226667347e-01,
          8.0932167371860958e-02, 5.3084777587984922e-01,
          -6.8511404893399241e-02, -1.1978644355716681e-01,
          -1.7315696321196417e-01, 2.4699998265789899e-01,
          1.7079015067504855e-01, 8.9396418087237794e-01,
          2.6969689838393962e-01, -3.2067792891113567e-01,
          1.1200512842898748e-01, 3.6389416105238725e-01,
          8.7280902273745498e-01, -2.1066630984017626e-01,
          4.7199495380049909e-02, -2.5973198970980593e-01,
          4.0320856494265989e-01, 5.8094871394067893e-01,
          7.1566927838150485e-01, -2.5300277832124624e-01,
          -1.0000027305364290e+00, 1.4030706427739364e-01,
          -4.2479540515479652e-01, 5.4076414476786593e-02,
          -7.2748664211458203e-01, 8.0330095605497046e-03,
          -4.2873483698587528e-01, -1.3596123981903424e-01,
          4.7275725439870422e-02, -6.9384764769452212e-02,
          4.3038605494961890e-01, -1.9260445771572790e-01,
          3.3165768702768650e-01, -1.8185033502290962e-01,
          2.6259529748789501e-01, 3.2065958399446387e-01,
          4.1809651935649693e-02, -7.3730846165754338e-01,
          3.5366820437322005e-01, -2.2096340628676828e-02,
          -5.3297936657261014e-01, 4.8661079448048716e-01,
          -1.7838420496044713e-01, -2.3085797228201396e-01,
          3.4364967575415822e-01, -4.8299585835360553e-01,
          2.0046552815740673e-01, -5.8920652992885167e-02,
          3.1932220989950444e-01, 1.4097403031316810e-01,
          2.4070511307618012e-01, -3.6856401602919298e-01,
          -1.5841624302940319e-01, -1.1171448204982410e-02,
          -5.4193941910599741e-01, -4.9290351017030332e-01,
          2.1871370666650197e-01, 3.8022108309416586e-01,
          -4.7827094517744495e-01, -1.6518013766254300e-01,
          4.2175843830699992e-03, -3.1900744308596823e-01,
          4.1705882332742750e-02, -2.5898104919913556e-01,
          4.6529371394104863e-01, 2.8980698415473072e-01,
          2.5418296510924487e-01, -6.9016099205373382e-01,
          -1.3768929245561562e-01, 5.3198562487102097e-01,
          -7.8162764893880921e-01, -8.2799876136577175e-02,
          -2.6572950577236765e-01, 3.9200095030091464e-01,
          1.0560392046618738e-02, 4.0292176423683346e-01,
          3.4553978015407094e-01, -2.5238514073355093e-02,
          2.6881397000550133e-01, 5.7287293424017205e-01,
          2.1044587768989892e-01, 3.5610032396561359e-01,
          -4.6048638383988694e-01, 2.8249649883642775e-01,
          3.2797736608092359e-01, 3.8856791639864779e-01,
          -8.2355670007540938e-01, 6.1846474945378378e-02,
          1.1200882478287646e+00, -2.3090123061298501e-01,
          -3.0687340503736664e-02, -2.0602890814913014e-01,
          -4.4066267782946600e-01, 5.0906043590748344e-02,
          -5.0853988688151586e-01, 7.7657802541412501e-04,
          3.9656700036219628e-02, 1.4386131813772710e-01,
          1.9214686393970959e-01, -8.2773996076542777e-01,
          1.2158696389233485e+00, -7.7407430995176246e-03,
          -6.6772614768140573e-02, -1.9089297029446506e-01,
          -7.6016076670359228e-02, -1.6558337895175701e-01,
          3.2148381225716166e-01, -6.0650489914233741e-01,
          -2.2280491975454675e+00, 1.2360313781800457e-01,
          -1.1896459876995501e-01, 7.7085058325644651e-01,
          -1.2671630062396471e+00, -2.2369519435594731e-01,
          6.5796452583327100e-02, -5.4445815338276060e-01,
          -6.0220268019245245e-02, 2.9001489959546128e-01,
          -3.8722153606164975e-02, 1.2704839641660223e-01,
          -2.4426096450241658e-02, 1.3069848815754942e-01,
          -2.0332721969991480e-01, 5.6681267346828601e-01,
          -2.7704493369676425e-01, -3.7245696918837534e-01,
          -5.9943016589329590e-01, 3.6363376020760635e-01,
          1.0891819211565816e-01, 8.7162825304401015e-01,
          1.8257319455235545e-02, -2.8788228144257255e-01,
          3.7885445138976931e-01, 9.2117512198463779e-03,
          4.8561188781126641e-01, 2.7308315103076147e-01,
          -6.2117822262955613e-01, 5.0411682113021150e-01,
          8.6727393923385021e-01, 6.7552571977515197e-01,
          -2.4774661676345172e-01, 1.9701995371734513e-01,
          -3.5697174073299970e-01, -3.0421204764785398e-01,
          -4.0507726332144493e-02, -2.1235498356268703e-01,
          -2.5596604482054480e-01, 8.3067612654975431e-01,
          3.7866226975874240e-01, -6.2557339033852298e-03,
          -3.9105904044002104e-01, -1.4356923919162420e-01,
          -5.5603532208832140e-01, 5.9103178708997228e-01,
          -1.6000603263715485e-01, -9.2034814747523908e-01,
          3.3564266905919704e-01, 2.3168533790224335e-01,
          1.0663591662114595e-01, 3.6003952964056840e-01,
          1.2576425713333869e-01, 4.2463692423445698e-01,
          3.5940254676771299e-01, -1.4118720792154815e-01,
          4.0051172310789090e-01, 3.7165372087503851e-01,
          -9.9790421354267640e-03, -3.2492825998847746e-01,
          -3.3424858543616198e-01, 6.0067733074206797e-01,
          1.2882358449927853e-01, -4.0399285953447606e-01,
          -4.7431229557542265e-01, 4.3608337708821160e-01,
          5.0026515772615854e-01, -1.0562785804642989e-01,
          4.6370970368460179e-01, 2.7616865798497953e-01,
          7.6558948940066462e-01, -4.0132744959733369e-01,
          9.4390699328200556e-01, -6.2512242909853089e-01,
          -1.5679782143565554e-01, -3.4692504234525418e-01,
          5.0097502524356219e-01, -2.5974416539681028e-01,
          -1.9588075357794152e-01, 4.1243840037742574e-01,
          9.6058879783377335e-02, 3.4611170817167286e-01,
          -1.2403557564109906e-01, 5.0359176986642751e-01,
          -5.5647186060849403e-02, -1.5841122046189951e-01,
          -6.3377332223889925e-03, -4.9206737139787510e-01,
          -1.4419046115016283e-02, 1.7986185179112935e-01,
          -5.2068031432107820e-01, -1.2206244379462262e-01,
          -4.2212483920681126e-01, -3.1871312973113425e-01,
          -5.5102686486386232e-01, 1.0747158258258413e-01,
          -4.3145541577271979e-01, -5.2542268744525378e-01,
          7.7096145762184387e-01, 5.6390305396481688e-01,
          -5.0105580572356678e-01, 1.1652660274821315e-02,
          1.4653230774842146e-01, -1.2587769944568139e+00,
          -1.6675535116272261e-01, -5.0638436024118293e-02,
          1.7222711163862983e-01, 2.9452912322244346e-01,
          -4.0069546083925095e-01, -2.2830606037110171e-01,
          -4.0642808298479738e-01, -4.6965831139414554e-01,
          1.2978510226179238e+00, -1.4697988225200768e-02,
          4.8972145293284081e-01, 5.0256271091727278e-01,
          -1.5169735095712147e-01, -2.1266564648898229e-01,
          -2.2476089205909991e-01, -5.9986161657534794e-02,
          -2.1544973483584079e-01, -2.7356691670087957e-01,
          -2.3308774658977952e-01, -3.7277742853274598e-01,
          -5.5977676699265899e-01, 3.6109641698851436e-01,
          -1.8258940303998855e-01, 7.6331751463309117e-02,
          -1.2293267115808499e+00, -2.4146198943407296e-01,
          7.8168316255982889e-02, -8.2752312191610125e-02,
          -6.3220802119057351e-01, -3.6429073036648096e-01,
          2.8058641359397707e-01, -8.5120772615824314e-01,
          -3.7513614170084952e-01, 2.9479916273720191e-01,
          2.2016851832688680e-01, -4.9667414339109106e-01,
          1.2375922662457835e-01, 2.7435179459570203e-01,
          2.3145614919665485e-02, 1.9904950697414187e-01,
          -1.8893262708994218e-01, 2.8829557700414965e-01,
          5.7703529535036997e-02, 2.7499768709194161e-01,
          -1.0372047197206398e-02, 6.2080334490229538e-01,
          -3.7581883198475369e-01, 1.1596956961693294e+00,
          1.5527042118765769e-01, -3.5885527276895346e-01,
          -2.2780397361966596e-02, 1.5880936689300509e-01,
          -1.4347204958832202e-01, -3.7779217873209836e-01,
          2.7094075777611853e-01, 2.0985633851317265e-01,
          2.4293041975589804e+00, 1.5303069488579732e-01,
          2.5654860567707238e-01, 6.5330581356538048e-02,
          4.4470041672256133e-01, -2.2233708226628529e-01,
          -8.0944888697612627e-01, 3.6718479736554493e-01,
          1.2931499241244312e-01, -4.5488392742216993e-01,
          2.1452250234618203e-01, -2.7264589043427313e-02,
          1.7539529238854062e-01, -3.0400341309151085e-01,
          5.5264415467684980e-01, 1.5846367344229792e-01,
          -1.9802372884391453e-01, -1.0392538916541888e-01,
          -4.6473362559528969e-01, -1.3571934080967318e-01,
          -6.7319707887641733e-01, -4.9422771769660839e-01,
          -4.5016480228498429e-01, -3.0857391502685300e-01,
          -5.8984186286601459e-01, -4.7150340714766245e-02,
          -2.5126131622955689e-01, -4.2442267975609260e-01,
          -4.0094936640449963e-01, 1.2875542500641940e-01,
          -9.6357025998228363e-01, 1.0506097939834214e-01,
          -7.6375870660681966e-02, 1.6102420465299885e-01,
          -2.3723707130455038e-01, -3.6962303728424156e-01,
          5.3294832430311731e-02, -3.0696864340494082e-02,
          9.2761044050255856e-02, -3.2526745474585211e-01,
          4.9693585260055756e-01, 3.9906432905887201e-03,
          2.0858494300146757e-01, 1.6367051879299929e-01,
          2.3415096606218086e-01, 1.5980835912443946e-02,
          3.1417606756144983e-01, 8.0658689781929183e-01,
          -2.4715163082797778e-01, -2.1619628994360413e-01,
          -8.1896437343225281e-01, 3.8770952285545984e-01,
          2.4482450784119059e-01, -1.3952421022390088e-01,
          -3.7397780506565825e-01, 1.7904379349730191e-02,
          1.4295992453940015e-01, -2.2741557119760392e-01,
          -6.3100874091928771e-02, -5.1072398637733629e-01,
          -4.7287200971108312e-01, 6.5413267598034519e-01,
          3.1962993668852141e-01, -2.0226140013171384e-01,
          1.0169527754290764e-01, 4.1245299269185759e-01,
          -5.4998702702744917e-01, 1.5590148097513165e-01,
          -2.6520930181664487e-01, 5.8862787503749947e-01,
          1.3276085367839721e-01, -2.7289649441620034e-01,
          1.0557400789498878e-01, 1.5915393393088922e-01,
          -1.0310970200296540e-01, 1.9941880945745977e-01,
          3.5410478812197821e-01, 2.4915523396931049e-02,
          1.3240898609669469e-01, -1.4435801555920841e-01,
          -2.4002813036998677e-01, -4.8580002016046087e-01,
          -4.4678403380573567e-01, -4.9545531898004896e-02,
          -3.2191775371702397e-01, 1.0600253592697280e+00,
          -3.5334348592309647e-02, 3.5795740710314011e-01,
          8.6815508525625626e-02, 4.3341544150192635e-01,
          -2.0698688382501032e-01, -2.6855016458374692e-01,
          8.0179229202989116e-02, 1.2750780603280339e-02,
          1.8166313638845671e-01, 3.4929366092949166e-01,
          -7.0442717117706499e-01, 2.3466222618830312e-01,
          6.9257405911609726e-02, 6.7318414408092900e-02,
          -5.1869483332713273e-01, -7.4714091174079442e-02,
          1.1661211111557969e-01, 5.5789318997754112e-01,
          1.1970163449737123e-01, -2.9618482923484885e-01,
          1.3930416772402232e-01, 4.3235990817852099e-01,
          3.8150027952514276e-01, 1.1575265028165106e-01,
          4.6488603736330120e-01, 8.7280561679137697e-02,
          -6.3382035473065965e-02, 1.1569906600670714e+00,
          5.1247562371651623e-01, -4.2438987117508054e-01,
          8.2831054224147757e-02, -3.1445622214609553e-01,
          2.4286560231187473e-01, 5.6804361396292280e-01,
          1.3525666470810660e-01, 6.8116189001896352e-02,
          2.4233238123965811e-01, 6.1302550850326587e-01,
          -2.6371366373963707e-02, -3.1490209714139239e-01,
          1.8857002580581167e-01, -5.5859828182624416e-01,
          -2.3659963376269016e-01, 3.5419742712782787e-01,
          -1.4530345088422922e-01, -6.3867107201169815e-01,
          -2.0862771759566487e-01, -1.2514716905032033e-01,
          1.6587143935918941e-01, 2.5408452010413357e-01,
          -1.8631493863264709e-01, 1.6936520000945501e-01,
          -2.2789317400589315e-01, -8.0592143115867725e-05,
          4.2462113676366581e-01, -3.0366206367584742e-01,
          1.2790877852776752e-01, -1.5410573010719808e-01,
          -2.4480099323190105e-01, 4.8942497645302191e-01,
          2.1043634357787605e-01, 2.0938826775883818e-01,
          -6.7894015972988764e-01, -6.2895514209588532e-01,
          -5.5332926859534692e-01, -3.1491692553262721e-03,
          -4.2665017318469461e-01, 1.4281137204952513e-01,
          -5.5456738038234066e-01, -5.5591175849429808e-01,
          -5.4566177632441237e-01, -1.7069483677877964e-01,
          -7.5528497627348881e-02, 4.1317217167815562e-01,
          -1.9564938261414844e-01, -3.3531951512866164e-02,
          9.8391058927137931e-01, 3.1912756473458787e-01,
          -7.6510317914194048e-01, -1.8196774426989099e-01,
          -1.0922506569398434e-01, -8.8406198306852679e-01,
          -3.3499921922990689e-01, 1.2697839736386587e-01,
          5.6549775188339180e-01, -1.4794931681849216e-01,
          4.8161660327168294e-02, 1.3884552713353104e-01,
          -6.2177724733521761e-02, -6.4606313864969278e-01,
          2.2799695222912816e-01, -2.4153569844923448e-01,
          -5.5679705464250584e-01, -4.7077885373686013e-01,
          4.0606758764301802e-02, 1.6312714267291351e-01,
          -3.2833503121485319e-01, -1.9315963952802339e-02,
          5.4844983825642890e-01, -1.1703056014305152e-01,
          6.0517478899191346e-01, -1.1254607978321743e-01,
          -1.4814576023314704e-01, 1.1247834364478624e-02,
          7.8108985406054310e-01, 1.4649569114237335e-01,
          2.0342117981716776e-01, 4.6163927509447350e-01,
          1.7108337928372594e-01, -1.0234155629849788e+00,
          1.3303440091149157e+00, -3.1878554765284089e-01,
          -2.8640355467628137e-01, -1.4987930549359801e-01,
          6.3524202825516596e-01, 2.9718237603937564e-01,
          6.4201579174264123e-01, 2.1360402613881138e-01,
          1.7712524333543866e-02, 4.5680343216892122e-01,
          1.7108388625029980e-01, -8.0940735815524911e-02,
          7.0869767858123967e-01, 1.9002327398114008e-01,
          1.7333622168154350e+00, 3.1122370919945902e-01,
          -2.1342559192998065e-01, -3.0596834509668613e-01,
          5.9359465177382198e-01, 3.8163241452779018e-01,
          7.7655161808313791e-02, 1.5036755148029674e-01,
          -3.7261229306747640e-01, -1.6660704258104764e+00,
          -2.8242774500673029e-01, 2.4171183560922101e-04,
          1.2605877329175974e-01, -2.3997235008866211e-01,
          3.4990852587303400e-01, 2.1469366881373309e-01,
          3.2254841016573316e-01, 5.1195918041174382e-01,
          -1.5949290289256479e-01, 7.8167053565829217e-02,
          2.7091181949108933e-02, -1.2592717429774838e-01,
          3.1665548739612898e-01, 3.0391944534991444e-02,
          5.9696713512460309e-01, -3.2878160247974353e-02,
          1.7399706385770541e-01, 4.2811265636082535e-01,
          -5.7717728987601573e-02, -5.4769201742036633e-01,
          -3.4433617546394057e-01, -6.3533324080597009e-01,
          3.8471177728054778e-02, -3.1368254181209448e-03,
          3.5690349020909651e-01, 1.1195295098159896e-01,
          -2.4757829580159471e-02, -1.6158087360297457e-01,
          5.1292876323494982e-02, 4.6860662841922740e-01,
          1.7986993583886465e-01, -4.7882473008772286e-01,
          -8.9758903498551690e-01, -8.5407589042149415e-02,
          -5.3487062852075518e-01, 1.4164063300154964e-01,
          -1.9110210621407195e-01, -3.9666819149124111e-01,
          1.3190749625512602e-01, 2.4227466330401334e-01,
          -4.7481675953682273e-01, 8.4099063735804072e-02,
          7.5018963878913525e-01, -1.0365592781004491e+00,
          -7.8886733339221568e-02, 8.9778973706167234e-02,
          7.6005630078099728e-01, -1.1169000635073995e-03,
          -8.6636524756425803e-01, 2.3903534758165662e-01,
          -2.0649569482935859e-01, -7.1833452305251261e-02,
          5.0304537616829648e-01, -5.7108815461293361e-01,
          2.3340432387367610e-01, -9.1110844802387056e-02,
          6.6385486918559375e-02, -1.5614824771437549e-01,
          -4.8567053175476710e-01, 3.3044665280769082e-02,
          3.4739298841218974e-01, 7.0906494635568390e-02,
          6.0755277904838756e-02, -6.3516674118281524e-01,
          -4.3432109168269084e-01, 2.9930574008040411e-01,
          -7.6494055408680117e-01, 2.4391038142393673e-01,
          -2.9857037797284602e-01, -5.5804979451699732e-01,
          3.3223408243808794e-01, -4.6172305285848647e-01,
          -5.4546047024584898e-01, -7.6534996688439758e-02,
          2.6711579550043618e-01, -4.8897345182569840e-01,
          -3.4931589701834298e-02, -1.8907011173249144e-01,
          -1.1899285232118929e-01, -5.1031770378298746e-01,
          -4.0126865250434052e-01, 6.5466823673161548e-02,
          4.5688871405979653e-03, -3.9563520111252115e-01,
          9.2683048726210387e-02, -3.1442534707551378e-01,
          5.7229194055053811e-01, -8.9140458257829500e-02,
          3.4711956540433991e-01, 2.4190781546619458e-01,
          -7.1876683946995856e-01, 7.4470576002734412e-01,
          4.4452993291698556e-01, -3.6757633160163355e-01,
          4.3835106723938805e-01, -3.6782795318797627e-02,
          -4.2316143721182858e-01, -5.2978690894358205e-01,
          5.9889811729245934e-01, -2.2286893724041204e-01,
          -3.3233615490774682e-01, 4.7985946908840593e-01,
          4.5989696176794564e-01, -1.9343547969148733e-01,
          -5.6432202089116382e-02, -1.8080558557876317e-01,
          -7.4367024254618053e-01, -3.7875274656704838e-01,
          -2.0950122284914161e-01, -5.6166616413622494e-01,
          7.8302029032968345e-01, 5.1289948506785166e-01,
          -2.5874130774654636e-01, 4.8060502601876481e-01,
          5.3613758358354202e-01, -2.2743282930017852e-01,
          -1.0849702381277972e-01, 5.1646746296732338e-01,
          2.9979758243296561e-01, -3.0134210375192039e-01,
          -7.7521033966263683e-02, -1.9917491564278500e-01,
          -2.5145589151717995e-01, -3.7878908420565177e-01,
          -1.2828325256170692e-01, 2.3364300196308793e-01,
          2.8327436000611961e-01, 5.4813519793068211e-01,
          -5.8574688615151971e-01, -3.6430669998522558e-01,
          -2.8253555415502729e-01, 1.0090115520659753e+00,
          6.9854262484794238e-01, -1.5731066900434576e-01,
          1.7914950023826218e-01, 2.2673229160847766e-01,
          3.4341637957190685e-01, -3.9440374198621314e-01,
          3.5084299482791859e-01, -7.9204637769749442e-01,
          1.2902375403178765e-01, -5.1366993657010684e-01,
          2.1103934056450141e-01, 2.6432221385026964e-02,
          3.8675880794217110e-01, 2.8244937849983731e-01,
          5.5570767779946362e-01, -3.1878826727363851e-01,
          6.4225133793135769e-01, -4.3969998992886355e-01,
          2.6702302202882572e-01, 2.4136584006844475e-01,
          -1.4086409419439364e-01, 3.3066084343608408e-02,
          4.7544425167355875e-01, 2.4301242155170102e-01,
          -6.7697886655812653e-02, 3.6718659715502283e-01,
          5.6274098187596940e-02, 2.9245763728380647e-01,
          3.5076280770181417e-01, 7.7209976731025365e-01,
          3.9437484034905290e-01, -1.9194404465291351e-01,
          -1.7198528139490740e-02, -1.0931729012926026e+00,
          -2.1234126106696136e-01, -3.9466379452236150e-01,
          -2.0137662574563372e-01, -3.5338065906811750e-01,
          -4.3878629204959146e-01, 2.1797612402133004e-01,
          -4.7409142558600365e-01, 1.1295719394609648e-01,
          -1.9764784336101068e-01, -5.3333638958048032e-02,
          1.8416728242083121e-02, -6.0080427545454551e-01,
          2.6469236703328802e-01, 1.3427530397156986e-01,
          -5.0855408493894583e-01, -9.9408881932558091e-01,
          -2.3539059414763508e-01, -7.2870645891415764e-01,
          1.9836785207188869e-02, -2.1811716027520867e-01,
          2.0507600253541855e-01, -1.5928761819620924e-01,
          -6.6318188683584842e-02, 5.9978588632541470e-02,
          -6.4561232151936862e-02, 4.1427987585516174e-01,
          1.1250304675356420e+00, -9.8877428941151216e-02,
          1.2377622926289494e-01, 1.1150065769939875e-01,
          5.9627898920283424e-02, 7.8261735196461646e-01,
          -6.5678899468951807e-02, 1.5363590703067712e-01,
          -4.3256216413108772e-01, -5.8684205060655754e-02,
          1.4330715327115123e-01, 5.1502433279453164e-01,
          5.0259816981763872e-01, 2.2463931216720623e-01,
          5.4668691378208412e-01, -2.8374821975739282e-02,
          8.1551973679566503e-01, 3.9609277721987923e-01,
          3.8438434706520280e-01, 9.0971314805128878e-01,
          1.6753380342200724e-01, 3.6297815618425412e-02,
          -5.1911993851337057e-01, -3.4993371617051328e-01,
          3.9220861587625244e-01, -3.7203103795840986e-01,
          1.1141871693105780e-01, -3.2206662877294207e-01,
          -3.1763317045105827e-01, -4.3881075828431632e-01,
          -1.8728155603992450e-02, 3.5904958242873014e-01,
          -2.1761706155795396e-01, 3.2626414115571700e-01,
          9.1378969205297797e-02, 6.2695715426038301e-02,
          2.2873330615956547e-01, -8.7104823205489582e-02,
          -2.0698084488813789e-01, -1.0019504870993088e+00,
          8.5462511316593562e-02, 1.0939965298512709e-01,
          -2.4737459641461862e-01, -3.4334216663571782e-01,
          -2.3694342043513195e-01, -1.7070039169827703e-01,
          2.3768524558577656e-01, -5.1856985575784997e-01,
          5.0333523695934190e-01, 2.3008426152457639e-01,
          1.8334066488535217e-01, -1.3506428882536163e-02,
          2.7445764567502218e-01, 2.5974364232701169e-01,
          2.4137248808530445e-01, 9.3674986758129311e-02,
          -6.3012711276466779e-02, -4.3779666803859890e-01,
          -2.1968804546785151e-01, -8.4817974933637752e-01,
          7.5652522964641991e-02, 4.5488851128637564e-01,
          1.1361307508663297e-01, 1.9993378139840637e-01,
          -1.2624351903202272e-01, -4.4447814880602798e-01,
          -4.8687820590428331e-02, 1.5866297229346019e-02,
          -1.7816410886138458e+00, -2.7895057067800855e-01,
          -2.6890744134202665e-01, -2.4382626459799561e-01,
          7.8788194819624818e-02, -8.4736535612502176e-02,
          1.7184887579131891e-01, 3.6042143806891630e-01,
          -5.4661992486270981e-02, 4.2144165344199902e-01,
          -1.0222393531371192e-01, -2.7448345688295872e-01,
          8.5917486321124170e-01, -3.2270175576338939e-01,
          1.1542608295714539e-01, 4.7846627829372301e-01,
          5.1960516934352008e-01, 1.5478612766184602e-01,
          5.2430746939465249e-02, -2.3606217878962851e-01,
          5.2829574912543720e-01, 4.0650651482016614e-01,
          4.9269600592728507e-01, 2.0689145349039120e-01,
          8.6830341506549136e-01, -9.1739204861896539e-01,
          -1.1183881919896992e-01, -1.3547329326965141e+00,
          -3.0554545585477044e-01, 3.3349201710824193e-02,
          4.0227293815705134e-01, 2.2579250630033754e-01,
          -2.8375514836332177e-01, -1.3558392209563511e-01,
          -3.2267374159868106e-02, -2.2599781810454678e-01,
          -2.6780796910701916e-02, 2.6268787541439514e-01,
          -6.0711937028883417e-02, 2.4772324781127511e-01,
          2.8735540103422891e-01, 4.1763710808456650e-01,
          -3.3225031916046066e-01, -2.0924458952615044e-01,
          4.3052726607617675e-01, -5.6442604041220601e-01,
          -5.0769757458016695e-01, 5.1986020708256080e-02,
          -2.4093508606675382e-01, 2.8354131817318318e-01,
          -1.0303335999632832e-01, 1.7111342352320461e-01,
          -1.5605672872380263e-01, -3.4778878730980323e-01,
          -3.0223590992242944e-01, 3.0018107240893859e-02,
          -9.8282262836912687e-02, 1.1658470073724536e-01,
          6.5627429271332360e-01, -4.5774569679178401e-01,
          2.8801735091152308e-01, -5.9617626684440572e-01,
          -4.5607802763025618e-01, 1.9790031781819556e-01,
          -4.1353643248195676e-01, 1.3915503433598528e-01,
          -2.6210513528502921e-01, 5.0501599455356128e-01,
          -2.1675756670440793e-01, -1.3692382138122056e-01,
          3.9676450476228742e-01, 5.6108281656811039e-02,
          3.3277515436663474e-01, 3.1629015889621759e-01,
          2.7092852667948059e-01, -6.8723027090685762e-01,
          -2.8119806921836643e-01, -4.7841724090608197e-02,
          -6.3149097456788683e-01, 2.5928038286515448e-01,
          3.1436462675570137e-01, -3.3895690801101447e-01,
          -2.5103409573074520e-01, -9.1905092263733626e-02,
          -6.9649820333866463e-01, -1.6782176802190785e-01,
          -3.1471331812400549e-01, 3.3887125487299713e-01,
          -6.8301081176441417e-02, -7.4612214587326489e-02,
          5.7923374435312196e-02, -3.2787307409168964e-01,
          1.4977886534012000e-01, 3.6277055740492442e-01,
          -6.2502935080959235e-02, 5.2847266335646556e-02,
          1.6396501078152034e-01, -3.4817909651593988e-02,
          2.0605800270800056e-01, -1.2702433725566437e-01,
          -3.3588615113796741e-04, -1.0914648478734811e-01,
          -1.1375890557597084e+00, -3.8362823405462915e-01,
          -6.1176427105409981e-01, 2.3784202502149512e-01,
          -8.0676095957450081e-02, 2.7458335478108779e-02,
          -7.6532612906608144e-01, -4.9600359273429991e-02,
          -1.8125137043727191e-01, 3.2637104946292218e-02,
          2.9702538585283069e-02, 1.0783854221649833e-01,
          -1.2501246966286020e-01, -2.7520687890794271e-01,
          -5.3617097187148126e-02, -4.5148111436852867e-01,
          2.0324262415978192e-01, 5.6905581197946198e-01,
          -3.3152536082726787e-02, 6.0249148496843741e-01,
          6.1588965420340291e-01, 1.6190646868902361e-01,
          1.6350808266948771e-01, 3.2011314021316900e-01,
          -6.0106614204192443e-01, 1.9941914364132612e-03,
          6.2361753033692069e-01, 6.9087669672035848e-02,
          -2.8493566144840715e-01, 5.1522101563759470e-01,
          -1.9807726709705378e-01, -4.0095594983139887e-01,
          2.3038644521071933e-01, 2.6609897558168855e-01,
          4.4052517583353418e-01, -3.1458770754862531e-01,
          2.9530406841860307e-01, 6.5502954349289122e-01,
          -9.4660635279083893e-01, 2.4011681926495620e-02,
          1.9277764805989478e-01, 2.3240619177617827e-01,
          1.7698877685382836e-01, -4.0927451052948494e-01,
          -1.9897954500563717e-01, 4.7953920673108330e-01,
          1.3396715909250681e-01, -1.2036730270603657e-01,
          4.7554365232414952e-01, 3.2101068057915133e-01,
          -5.4991813016891149e-02, 1.5295128005405054e-01,
          8.1156847051273531e-02, 1.7802494005608746e-01,
          -2.2783777716468034e-01, 3.8223962965911179e-01,
          2.2469705027228171e-01, 9.0821471089343409e-02,
          -1.6909649741292883e+00, 3.1899413084742562e-01,
          -6.6756266492865834e-01, 3.3525411737278105e-01,
          -8.1911448868218284e-01, 3.2809834652496700e-01,
          5.4059795769600472e-01, 5.8295328678804326e-03,
          5.5541245377118444e-02, -2.3607698022445275e-02,
          -2.1300987170326297e-01, -7.2013816216921978e-01,
          -1.9281514683203002e-01, 1.9969760402314346e-01,
          -3.8508002932354352e-01, 5.0879202187224626e-01,
          -8.3360047618295727e-02, 2.1501677116960838e-01,
          1.1006097407722064e+00, 2.7407751819175497e-01,
          -2.3654755307735298e-01, 1.8243036572988397e-01,
          1.9596549073711114e-01, 9.9556680457297431e-02,
          3.7323283162359033e-01, -2.9199295761159577e-01,
          -9.4405143742165243e-01, -3.9877565270292313e-02,
          -1.4156738437902699e-01, -7.0069688872061109e-01,
          3.0866147127822663e-01, 3.8119640190935483e-01,
          2.4795355898673987e-01, 3.3468818218100976e-01,
          6.1850465880781080e-01, 3.2817989052443691e-01,
          -6.4123422006287145e-01, -1.7927573872367078e-01,
          1.7043877488052456e-01, 4.4128696740619061e-01,
          -7.9461864840247851e-02, -1.3175456325362975e-01,
          -1.4426320338029741e-01, -8.8676369835816963e-04,
          -1.0727889158021218e+00, -5.1839296263909129e-01,
          1.0575730893281840e-01, 5.3366335931349596e-01,
          -5.0760550997923141e-02, -4.3245379131235906e-01,
          1.2080653640352382e-01, -3.4944781435040034e-01,
          2.4637340742287861e-01, -1.2241319735494291e-01,
          -5.7519400479419547e-01, 8.3885430340337117e-02,
          4.2093369405135761e-01, -5.4834733854064767e-02,
          5.4198273767712246e-01, 1.6334159403178175e-01,
          -1.5650902766823940e-01, 3.3189584430920888e-01,
          -1.3696204092555722e-01, 2.7397540049311830e-01,
          2.6013857922038719e-01, -3.9081975837498983e-01,
          -1.4752500238489019e-01, -4.7373291529620631e-01,
          -1.6799670913284859e-01, -6.6873457258246871e-01,
          1.7134904057691261e-01, -4.1777482823718715e-01,
          -7.6045767906252767e-02, -2.6609455559634232e-01,
          2.8529173995612139e-01, 4.9433081075017427e-02,
          5.4307767348688057e-02, -2.7399210777565155e-02,
          1.3727632467629014e-01, -9.9326900690247230e-02,
          -4.6079217002314266e-02, 3.8400675115119254e-01,
          4.2084997027224225e-01, 4.0527461197152170e-01,
          1.1430332347780947e-01, -1.5628226078944507e+00,
          -1.5575912212116233e-01, 7.9873484849816143e-02,
          -1.3636662074305764e-01, 1.0792656643293630e-01,
          -7.4915752259096613e-01, 1.5356955185544469e-01,
          4.8091111096676166e-03, 2.7835758992861948e-02,
          -2.3845799913608054e-01, 3.6149070554418967e-02,
          3.0015367435833612e-01, 1.5681125964814413e-01,
          -2.8646730840722168e-01, -2.0252778993665216e-01,
          5.9627712409274136e-01, -3.8458942153889769e-01,
          -6.7033902876624238e-02, 2.2348058785627187e-01,
          -4.2584770805734745e-01, 1.1667490527339902e-01,
          5.0594061687418734e-01, 1.6271906551925501e-02,
          -5.0564888846743894e-01, -1.5220179537346143e-01,
          1.0017790143753230e-01, -3.2825102627961683e-01,
          3.3334062033464645e-02, 1.5708549707705943e-01,
          -1.9888805199387380e-01, -3.7263445193123201e-01,
          1.5455386831133999e-01, -8.5367380891713859e-03,
          -3.9382244457046311e-01, 7.4704900939292873e-01,
          -1.3045368216868169e-01, 5.4571385018972678e-02,
          1.7820758945943183e-01, 3.8799316756627056e-01,
          -1.0787135988357128e+00, -4.8005834227313060e-01,
          -1.4568187682981348e-01, -1.9075164118844187e-02,
          7.0615627280367677e-01, -1.8391460236596057e-02,
          1.7242147005684624e-01, 2.9219005689578759e-01,
          -1.2279483668127188e-01, 9.9350056265340020e-02,
          -1.0741652554079495e+00, 4.7192447188155584e-01,
          2.7309987690840443e-01, 4.5913376235500314e-01,
          -2.0590379303961587e-01, 7.5559179658953854e-02,
          -6.8797912792680105e-01, -2.3589268666760599e-01,
          2.2299108272195972e-02, -1.9956283902978342e-01,
          -7.5392872117310786e-02, -5.6823883478647468e-02,
          -1.6200443500830009e-01, -5.3314736583241651e-01,
          -7.7630758701673630e-01, -7.1292282605118204e-02,
          -2.5693552400064640e-01, -9.1136781144615556e-02,
          -1.3099734379455787e+00, -3.0207028778082606e-01,
          -5.8884267644671195e-01, 5.7532045182714604e-02,
          -3.5686134279763765e-01, 7.1649381376444249e-02,
          -2.0624072870050164e-01, 2.1499963270900899e-01,
          -7.1377323605615894e-01, 2.9566881912103776e-01,
          -1.9762540175005588e-01, 1.1219191283024174e-01,
          -4.5972088958264037e-03, -2.6941207790222809e-02,
          2.9020151325056842e-01, 1.2564207379441961e-01,
          3.3863487651390911e-02, 6.8537973222598275e-02,
          -4.3093254825900890e-01, 1.7275484849431819e-01,
          -8.4108219173825757e-02, 2.6623431789072877e-01,
          1.5506191532383348e-01, -8.3549471728216285e-01,
          -5.1106273287007986e-01, -1.8569189202739930e-01,
          9.6270119650582173e-02, 2.8451408743815060e-01,
          3.9054347021398556e-01, 8.9534336491694233e-01,
          -4.6565429521054469e-01, -3.7883485503255132e-01,
          3.8339908225820934e-01, 7.5839339534289774e-01,
          3.0920155830943180e-01, -8.9515598413549419e-02,
          5.9354608795972619e-01, 4.7992977581758474e-02,
          7.0197499800316365e-01, -1.5458726125537381e-01,
          3.5920706210138698e-01, -7.4196989474125605e-02,
          -2.8692105773849019e-01, 6.0729947905729265e-01,
          2.4396391333953707e-01, -2.4162523686102524e-01,
          -1.3358936801073440e-01, 4.6411165764373252e-01,
          -7.2967797730545375e-02, -2.4680894318943847e-01,
          -2.5568109430945357e-01, 1.1948193303058496e-01,
          -1.1248701205507795e-01, -3.4717254197890575e-02,
          -2.5830114067638943e-01, 6.8864791883901388e-01,
          2.2561294429528458e-01, -8.9996496095834200e-01,
          2.5493894984058818e-01, 3.4760171728782674e-01,
          3.0627750230921097e-01, 1.9217848463020029e-01,
          -1.4097343433259490e-01, -1.7738237799337607e-02,
          -1.2934166084681314e-01, 1.5770331218856945e-01,
          -3.4665491334138032e-01, 6.3851449961783626e-03,
          3.0955147317267384e-01, 6.1942881010754636e-01,
          1.9292158682465650e-02, -3.2432226266576475e-01,
          3.6005075784260360e-01, 1.2202704406678486e-01,
          -2.5822397790732765e-01, -3.8632006216609380e-02,
          3.1039804769454377e-01, -5.8765365256656332e-01,
          -5.3285285165834584e-01, 1.0614649390469037e-01,
          1.6192826403997293e-01, -1.0931572269617156e-01,
          2.5193478219112447e-01, 5.4544871850916599e-01,
          -2.6756680251316178e-01, 3.7515859342843794e-01,
          -8.4764788743457928e-02, -1.6574834384695883e-01,
          3.4913489960496730e-01, 2.7211987783057912e-01,
          2.6126848627755933e-01, -9.6238200429538812e-01,
          -5.0481139015296661e-02, -3.2608545022849522e-01,
          -7.3156461057532415e-02, -2.7077990739823715e-01,
          8.8989314057692323e-02, -4.0920173138068788e-01,
          2.6698852503346393e-01, 3.7170110760555253e-01,
          -3.8759391280860095e-01, -4.2640769744221041e-01,
          -6.7772960951924699e-02, -1.0121461263057738e+00,
          2.8053497879886141e-01, -7.9619537701497156e-01,
          -1.5703568997349501e-01, 1.9766517718513549e-01,
          1.0539703048027467e-01, 3.1402318187956474e-01,
          -5.8975544054413610e-02, -4.7584543834978699e-01,
          -1.5310201152406705e-01, -1.2742885183970640e-01,
          -1.2119986929061677e-01, -6.1686761552894348e-02,
          4.0265858687158257e-01, -1.0788380830651638e-01,
          1.2637710840044519e-01, 1.6786971753250363e-01,
          5.1743070019797355e-01, 1.0967962927172384e-01,
          -1.4373508497822354e-01, -6.1903863755497379e-01,
          3.7354121859031747e-01, -2.8766729284975923e-01,
          -2.6387680618475928e-01, 9.7998238289513824e-03,
          -1.8933948058617597e-01, -2.8136543151816829e-01,
          -7.4615226236067783e-02, -3.2591740483995137e-02,
          -4.5151642083771998e-01, 1.1343866336939050e-01,
          -2.0618893975313127e-01, 8.0542396751369016e-01,
          2.9590383756023901e-02, 3.5458424716732240e-01,
          2.6360047497964406e-01, -1.4369675289189041e-02,
          2.2150813932350430e-01, -1.4090790131622783e-02,
          1.8467552767939766e-01, -2.8103560730741045e-01,
          -7.7732456785675808e-02, -6.1145434625508595e-02,
          -7.9052631707643184e-01, -1.7268300147672588e-01,
          -6.3630052581498370e-02, 1.5715945218542657e-01,
          -2.9140172912232445e-02, -2.0117226511476856e-02,
          5.0242772483729348e-01, 2.0065224439963916e-01,
          2.4028837580771625e-01, 4.8937852169236108e-02,
          -1.7545946410821736e-01, -6.1048579282168625e-01,
          2.9717635283174104e-01, -2.7483864878805753e-01,
          3.2165891041209349e-01, -1.2653112105028350e-01,
          4.9752889920646359e-01, -1.5332118860039645e-01,
          -7.8430674221048172e-02, -3.1605027150028520e-01,
          -6.9366444975005093e-01, -5.0456311287281591e-02,
          -1.4174786230728320e+00, -8.2214190855720981e-01,
          2.7004072027505588e-01, 8.3441028398099099e-03,
          -1.0254459569000396e+00, 5.5751315263077206e-01,
          4.8809479378393139e-02, 1.8579220793546930e-01,
          4.1816742492175860e-02, 5.3886041714177513e-01,
          -3.6550266261680803e-01, 4.2358980409184860e-01,
          1.8194987947600932e-01, 2.4726390897764394e-01,
          9.5471947555393399e-01, -1.1866756308516863e-01,
          2.7421426219561407e-01, -8.9895974988571797e-02,
          1.4851614017627041e-01, 1.1501322656322822e-02,
          3.4017653486257890e-02, -3.1312507316897037e-01,
          3.5616432043876201e-01, -3.3660399164081356e-01,
          4.8769943151495743e-01, 2.3072485444794807e-01,
          3.0408229424676375e-01, 1.8759660080157151e-01,
          9.5371114671250964e-02, 7.2140010273076566e-02,
          5.8686984619424232e-01, 2.2623593596065125e-01,
          1.7091250356607438e-01, 6.0226993028326348e-01,
          1.7621276745050540e-01, -8.4676399790273116e-01,
          4.0429853784574904e-01, 2.4146027482218368e-01,
          -3.9730925622363833e-01, 3.8945710834691377e-01,
          -3.3917880571336440e-01, -3.0277684164633772e-01,
          -3.3153288615409102e-02, -1.4540821712022031e-01,
          -1.0833399676989110e-01, -2.2834227447774283e-01,
          -2.5646493863941594e-01, -1.1955647299946436e-01,
          -4.9402682355692207e-01, 5.9913640062921725e-01,
          1.6542499292851551e-01, -6.2264028468318666e-03,
          -2.3710848670293755e-01, -5.5526284290185890e-01,
          2.9797199532004470e-01, -2.7290318391444721e-02,
          3.2697311201877161e-01, 4.9172661721718797e-01,
          -6.7795166056379219e-01, 1.3963965176635953e-01,
          3.4409267039611791e-01, -5.1005416241012187e-02,
          -1.6189531615930683e-01, -2.0011276962861868e-02,
          8.4957234457114741e-02, -5.5440525119169715e-01,
          2.1880882651669850e-01, 2.7254388620582293e-01,
          -2.3801036744586709e-01, -5.0141739041529798e-01,
          -4.1357132688382775e-01, -2.5266698391018316e-01,
          -6.1493503734363117e-02, 1.8447847844838092e-01,
          2.9498018246476371e-01, 7.5093605421809123e-02,
          3.9922072985285112e-01, -5.3657698375827889e-01,
          -1.8140906475345817e-01, -3.8040108728273253e-01,
          -1.9469058861314645e-01, -2.1956946190330037e-01,
          5.8823644424133230e-02, -9.0346497571515916e-01,
          -3.7815507562030826e-01, -4.3060471204768469e-01,
          -2.2137318478744386e-01, -3.8012608282199004e-02,
          -5.9164087565567892e-03, -2.1592516405106754e-03,
          2.7387068021972882e-01, -6.1997333411498134e-01,
          -2.3700131488028634e-02, -2.3309654826501033e-01,
          2.0962569355429794e-01, 5.2908203033446413e-02,
          -5.0467427016885724e-01, 1.1885432690391151e-01,
          3.8736912094916093e-01, 1.5701268082472603e-01,
          -1.3340072078813955e-02, 1.5723138391052496e-01,
          -5.3825572126353216e-01, -2.0723005971307179e-01,
          -3.2575656308086842e-01, -3.5832293941038547e-02,
          -3.0887966852349380e-01, -2.2932126634700747e-01,
          4.9096492179017404e-01, -1.7830220339901623e-01,
          -1.2135999320664512e-01, -2.2982577850688093e-01,
          1.8851706529890930e-01, 3.9022707314404448e-01,
          6.5059207025723140e-02, -2.9060737850769836e-01,
          -6.5324050442059911e-02, -3.0749124483812201e-01,
          -3.4227267915614235e-01, -2.9186367209065267e-01,
          -5.4276078450842480e-01, 2.6723890304081577e-01,
          -2.5234141806888811e-02, 2.3148533796934108e-02,
          -7.0046646157636472e-01, 4.0811416003944989e-01,
          -6.3381088241102390e-01, 1.1311943354515314e-01,
          2.8872313872993832e-01, -4.9845492424530041e-01,
          3.7460191668360521e-01, 2.4734581935300251e-01,
          2.0311723819346716e-02, -2.2071140177818091e-01,
          2.5580713505215624e-01, 6.8647429925439776e-02,
          -6.0776727148087878e-03, 3.2914722225995946e-01,
          -1.1712311179100386e-01, -4.0529962012239559e-02,
          -1.3228022428694020e-01, -9.4676696249789610e-02,
          -8.9927024815008739e-03, -8.8751352177537726e-03,
          5.1396229895199402e-02, 1.9825109132672933e-01,
          -3.3247588679778434e-01, -2.9163360730531307e-01,
          -3.1663364714481768e-01, 1.7571008527946477e-01,
          -1.7010172726621176e-01, 2.9605076046040296e-01,
          3.4487301621045657e-01, -7.6859879578753920e-01,
          -2.0938962494428112e-01, 5.7321781988245335e-01,
          -1.2174395002109745e-01, -3.0121114831081247e-01,
          3.8271606625000260e-01, -2.9422279087581066e-01,
          -2.5360023701277172e+00, -8.6830591405629198e-01,
          -1.7796040407180669e-01, -4.2857675971490899e-01,
          -3.8745814357981628e-01, 3.4229484409212452e-01,
          -2.6506561928135458e-01, -2.1089440674670959e-02,
          7.2464362863688861e-02, 5.1030052807149817e-01,
          -9.6052819263028485e-02, -8.7992560625959018e-02,
          1.4538649500700687e-01, -2.8016185351031858e-01,
          -3.0650749886902628e-01, 2.4968055000171555e-01,
          8.1191408707439650e-01, 1.3247994946725181e-01,
          3.8590284712972406e-01, -2.2190812587901892e-01,
          5.4487201692804155e-01, 2.0790158286175356e-01,
          4.9658293065299480e-02, -3.3649317570546666e-01,
          -1.0757834131297346e-01, 1.0450833422573938e-01,
          -1.2469122709421593e-01, -1.7240111235191705e-02,
          3.9408221257168558e-01, -1.9083472114908187e-01,
          7.3049431857057046e-01, 2.9472788792318017e-01,
          2.3760086473218198e-01, -5.5102720172109554e-01,
          -6.9450197749507980e-01, -1.9355572989632402e-02,
          -3.9073243110464545e-01, 5.0113556469444065e-01,
          -6.7540017043062367e-02, 4.1174061764242659e-01,
          -1.6572631844934219e-01, 3.2128263038112859e-01,
          -9.3498980713721136e-01, 1.1258939340916112e-01,
          4.3237917118523644e-01, -5.0236889332956391e-01,
          -1.0921123164546857e-02, -6.5822368218602573e-02,
          1.3391550927779897e-01, 8.1170463827263428e-01,
          7.7781782093275409e-01, 5.5816566906452980e-01,
          6.7055650365568964e-01, -3.4062179419007826e-01,
          -4.2886350819948051e-02, -1.1827534934245529e-01,
          -5.6234791388135974e-01, 1.3738537882116880e-01,
          3.0676651852843473e-01, -1.4313817842753326e-01,
          -3.1513231745596670e-01, 4.0847434265225890e-01,
          4.6326688148232403e-01, 6.3682082431415421e-01,
          5.8274670047868971e-01, -1.6795134391180730e-01,
          8.4211530664606446e-02, -3.3684914493811347e-01,
          3.1401025264998023e-01, -6.5770053883050272e-01,
          1.1315704559780569e-01, -3.2430269326190614e-01,
          -5.4058077459473730e-01, 4.0878851532977961e-01,
          -1.1292396343498256e-02, -3.2736203676061520e-01,
          -4.6176046619376965e-01, -3.1132553049972787e-02,
          1.3067328209766846e-02, 5.1992095252610900e-02,
          1.4388525036552682e-01, -9.3709910916094508e-01,
          -6.6590776214507064e-01, -3.9022977867568009e-01,
          6.4315156364448206e-02, -6.7746491458194846e-01,
          1.7887186385655288e-01, 5.2530001319717079e-01,
          -4.9173579225322020e-02, 9.3172242291945664e-02,
          8.3771453186441081e-02, 5.9502940796127535e-01,
          5.9420004422215948e-02, 4.2260561990971374e-01,
          -7.9199472345471100e-01, -3.7865564683447078e-01,
          3.6505894929669652e-01, -2.4640065648774861e-01,
          4.1938630464090465e-01, -6.4928270057552762e-01,
          4.9823384272224019e-01, -1.0684075986258803e+00,
          -7.4070492892741535e-02, -5.7549277773337748e-01,
          2.4580430205342974e-01, 4.6609612886107987e-01,
          -6.2157038742666793e-01, -2.1887171170817468e-01,
          -1.0517910927243670e-01, 2.3633496142536614e-01,
          4.4359726084113987e-01, 1.8392969599459236e-01,
          2.5371507959203599e-01, -1.3182544702454888e-01,
          8.0987951737179453e-01, -1.9862159966684179e-01,
          2.0328274877992170e-01, 1.9333230685627695e-01,
          -4.2779970138729509e-03, -1.5142359999448987e-01,
          -6.1261159005098050e-02, 3.1821464519256654e-01,
          -3.7335260614144972e-01, 3.2093916738384604e-01,
          6.3992383847892242e-01, 1.2123937265138651e+00,
          5.8591084862047760e-01, 1.2870844706565446e-01,
          2.1864386563842855e-01, 4.6201739732404212e-01,
          3.1532004548254311e-01, -1.5184138039209194e-01,
          1.1754091096613860e-01, 1.8293115114145117e-01,
          6.3926606343108240e-03, -1.1213732840660318e-01,
          -4.2477867905396699e-01, 9.6850165096986451e-01,
          2.5176261017211754e-01, 6.1371063134503234e-01,
          1.3488812441836853e-02, -2.3766292226511765e-01,
          4.5929712198502159e-01, 4.4374617686957546e-01,
          6.1600010315946452e-01, 6.8376993095351474e-02,
          2.7898090862632235e-01, 4.5742611862303068e-01,
          3.8573002778493004e-01, -4.9449839227129477e-01,
          6.2570073861311054e-02, -1.9323905300962838e-01,
          5.6532274248473041e-02, -6.3162920192392530e-02,
          -2.8426210866011753e-01, 4.1057110322805436e-02,
          9.5622717770867515e-03, -1.3324231450939524e-02,
          2.3648453076855597e-01, -3.5563306605486517e-01,
          1.0604599851362171e+00, 5.0039261118487122e-01,
          1.0341577503277909e-01, 6.2672945125304214e-01,
          2.1497209114035662e-01, 5.7588890849884866e-01,
          -2.2514726976400248e-01, -1.0343238415037458e-01,
          -1.4774624735121323e-02, 1.8665505300510635e-01,
          -1.9579352527552246e-01, 9.5025970455954534e-01,
          3.0208478660645948e-02, 6.8237200044388979e-01,
          3.3722878952994606e-01, 2.5519570208730014e-01,
          4.3784628909655937e-01, 4.8312809465137241e-01,
          -8.1695172796795612e-01, -2.7359836500954998e-01,
          1.9350978505875080e-01, 8.4073331367048454e-01,
          -1.8574471121761860e-01, -3.2098893418222396e-01,
          6.1396689595014120e-01, -1.0901188863905396e-01,
          5.5017219896165170e-01, -3.2605204153029277e-01,
          -7.9259388687706031e-02, 2.7671506626952030e-01,
          5.8537066363640389e-01, -2.3823362296492800e-01,
          1.3126785156095580e-01, 2.0982214137711913e-01,
          1.7911165492052722e-01, 2.4600815187119848e-01,
          -5.6930769138561051e-02, 9.0889567937475235e-01,
          -2.7344552004466893e-01, 4.5630259356214668e-02,
          4.1897390272210677e-01, -8.4288282240978774e-01,
          5.6511155269411063e-02, 6.2764373778982557e-02,
          2.0501976790268531e-01, -2.2189792841140996e-01,
          4.7053815290707096e-01, 5.3965863303600603e-01,
          8.9863578276819478e-01, -1.2266259472223137e-01,
          1.6954269725950361e-01, -1.2832544218297541e-02,
          7.9760145304351993e-02, -2.3990300004353760e-01,
          -2.7882400969100873e-01, -3.3270401116538512e-01,
          -7.2987560991271003e-02, -4.5444043565252645e-01,
          -1.8675308548959932e-01, 1.1719315747773448e-01,
          2.5648615224998111e-01, -1.2874918978544486e-01,
          -6.4056182038185874e-02, -1.5119411569126137e-01,
          4.5936785374834248e-02, 2.3769920539813486e-01,
          -2.1451200492622807e-01, -1.7725581251703201e-02,
          -4.2489432741989762e-02, -2.4128202640840707e-01,
          -2.4905946100159621e-01, -5.8229724263234295e-01,
          -5.1741455449320117e-01, -1.1357498069529620e-01,
          -6.9664733352565317e-02, -3.0535254579251925e-01,
          -5.2911171600731988e-01, 2.1972050294853884e-01,
          -5.1131080555801553e-02, 4.5593252356244063e-01,
          4.1220940108529190e-02, 4.0406524425099466e-01,
          -4.3031856124498397e-01, 8.0112383682305784e-03,
          3.1049339466467629e-01, -1.2016626237470687e-01,
          -3.0107387329489260e-01, -3.3723169919986092e-02,
          -1.6003837061821652e-01, 3.0640137423589037e-01,
          -6.8531450800838015e-02, -7.8581980164768539e-01,
          -1.1265313710427791e-01, -1.3174335866234657e-01,
          2.1679783932382832e-01, -2.9143999960444075e-02,
          1.6035987638900426e-01, 2.9779428168413768e-01,
          4.9650700188971092e-01, -1.9324819897249970e-01,
          -1.1962858382699468e-01, 9.8532511002327094e-01,
          -2.6696310441093946e-01, 3.2008306813769927e-01,
          -6.0473695077111415e-02, -1.0454628792663161e+00,
          1.8370911029164738e-01, -1.5528497470155619e-01,
          -5.9207463688688866e-01, 1.3122630164666235e-01,
          1.5761943970983072e-02, -3.7443575241439608e-01,
          -9.4492337898205880e-02, -1.9534675222521661e-01,
          7.5060720549396248e-02, 1.6900484993898710e-02,
          -1.7228817876210091e-02, -4.1753120084527306e-01,
          -3.6220419334347838e-02, -2.2690027902103418e-02,
          6.6530006382337226e-01, 3.9583852582168240e-02,
          4.0223031265260106e-01, 6.9403858903844140e-01,
          -3.5112902780013555e-01, 1.2496638723307879e-01,
          3.5875192519316840e-01, -1.6689132636568588e-01,
          1.0568636941976683e-01, 7.8116174284626319e-02,
          -4.5106579255276175e-01, -9.0338389022838961e-01,
          -4.0219421634272490e-01, -5.3503625152929862e-02,
          5.4239461040885328e-01, 3.6991876052236451e-02,
          -3.8491687300075550e-01, 6.6305020677051751e-01,
          -4.2154353249241955e-01, -2.2429466766644068e-01,
          -2.1606127681908840e-01, 7.0777089463587767e-02,
          -3.1590058748152822e-01, 8.7581200397254222e-01,
          3.1066486622873074e-01, -8.6549659352561836e-01,
          9.1240306183919106e-03, 1.4215097882230909e-01,
          -3.3319770656489267e-01, -1.5033220708956643e-01,
          -2.4960601705540672e-01, -1.1151805262178791e-01,
          1.1251772318565696e-01, 3.6733222508551815e-02,
          3.6809297517092743e-01, 8.5471875830676258e-01,
          -8.8030624158951642e-01, -6.3544194747887717e-01,
          5.7553158089641253e-02, 5.3922040532368054e-01,
          -2.6146928219224703e+00, 4.9383330175934204e-01,
          -2.6674377548732902e-02, -6.0971384341316028e-02,
          -5.2314925263387013e-01, -1.8524809293758360e-01,
          1.2969916913112070e-01, 3.1390553136117916e-01,
          -3.6223175716596950e-01, -1.9721507112037062e-01,
          -1.5860641894734773e-01, 6.9552034653602746e-01,
          -3.6823099050177127e-01, 4.8894163441681965e-01,
          2.8568431321948895e-01, 9.3403929987103534e-02,
          -1.2104694234414367e-02, -2.3291773939628174e-01,
          6.8731773898625614e-02, -3.1412219310626333e-01,
          -6.3936643267593310e-02, 4.2152253071641893e-01,
          -2.8735087627579831e-01, -5.6195760551218177e-01,
          -2.9953654232715099e-01, -1.1222674729422606e-01,
          3.5027417667277061e-01, -1.1001702210349509e+00,
          5.6240347475547425e-01, 2.8830520823962047e-01,
          5.3684290828307835e-01, 1.5595152780910395e+00,
          1.8637099652336175e-01, -1.6484889975212361e-01,
          -1.5746990006238143e-01, 2.5988692961643417e-01,
          -3.2315980236909547e-01, -3.1779023498317988e-01,
          1.8591990001199576e-01, 3.8004221455456061e-01,
          3.8975519106632384e-01, -8.5326759651742368e-01,
          -4.2661489755286341e-01, 2.8734874675324673e-01,
          -8.5174981842057587e-02, -7.0344045791963195e-01,
          3.5359694253405675e-02, 3.3200110369564656e-01,
          2.7866159778379440e-01, -3.2101712257577142e-01,
          4.8964190090188481e-01, 4.6077011212947266e-01,
          -1.3176194468321986e-01, 3.8284798627962557e-01,
          -1.4812726688935673e-01, -3.8801961997936713e-01,
          3.0860198854952151e-03, -1.7495319384856536e-01,
          -6.0432301198221783e-01, 5.5551531505102303e-01,
          7.0560139041204906e-01, -9.5251007261907861e-01,
          4.7768485527411991e-01, -1.3012596253355835e-01,
          1.3932308229066320e-01, 6.9867750614661384e-01,
          -1.3544572751429465e-01, -1.7085236455617428e-01,
          1.9971232978163952e-01, -4.7062100281768571e-01,
          -6.8100901250697710e-01, 4.0102967646449927e-01,
          -8.8021254471143873e-01, -7.4702309234523256e-02,
          3.8726816157227140e-01, 1.6864934570354462e-01,
          -9.5838229096042726e-01, 6.1100884975549230e-01,
          2.1796030196021384e-02, -1.2286206261828303e-01,
          -3.2575283168283703e-01, 1.2972638494503683e-01,
          -3.1775557114219100e-01, 4.4114208079920322e-02,
          1.6549256414279173e-01, 2.6967636582666765e-02,
          -4.0733653500915845e-01, 4.7365758183772505e-02,
          -2.3991082045931011e-01, -3.7028362535616260e-01,
          1.7225616420551829e-01, -2.7575316832722957e-01,
          -4.0066524976236438e-02, -3.9531508152289430e-01,
          -5.8064678300158890e-01, 8.4844154572893926e-01,
          6.1722115326357696e-01, -2.2077006016606032e-01,
          7.2538100131965144e-01, 8.4038324716048185e-01,
          -6.1620957747469851e-01, 2.8626021250433786e-02,
          7.1231153184102580e-01, -2.1804698693298771e-01,
          -5.0470879208965047e-01, -2.8391839783033335e-01,
          -9.8874235866723517e-02, -1.6040642991716997e-01,
          -1.7773228520944920e-01, -1.1446916419493390e-01,
          1.2842818419727853e-01, 1.3099962855657687e-01,
          1.7810389979862168e-01, 2.7925628127734553e-02,
          -4.0517175921317616e-01, -4.9162450382634459e-01,
          -3.7849436598102515e-01, -1.6016665696032795e-01,
          1.8491135520758240e-01, 4.6058115861422144e-01,
          -1.6627027936132244e-01, -1.5123563488814229e-01,
          3.9508758722909842e-01, -6.7607177021266307e-01,
          -5.6930760699599547e-01, -7.0080661268516101e-02,
          -2.1240163609286683e-01, 2.0261947024154947e-01,
          5.7481638149932957e-01, -4.5670670550980251e-02,
          -2.0650669685519801e-01, -6.1086645641586224e-01,
          7.3772936287832935e-02, -5.7122028612930109e-01,
          7.5827853546842697e-02, -2.5798475269664012e-01,
          2.7941187411630064e-01, 2.7114672451698529e-01,
          -8.0108729396259093e-01, 3.3471224825128243e-01,
          6.8833903307849154e-01, -7.4578497742914207e-01,
          2.7804426979506375e-01, -2.2771577822167571e-02,
          5.1442365585827571e-02, 3.6423539256502613e-01,
          2.3904562647968566e-01, 7.6858135408976735e-03,
          -7.2113508468086740e-01, 1.9429945095808993e-01,
          3.8834073708850586e-01, -1.3732187240464414e-01,
          3.3062988279328437e-01, 4.3261725460383477e-01,
          -2.8309423011682766e-01, 4.2045971429830697e-01,
          -8.5896886990027110e-01, -4.7309582243973580e-01,
          1.0689645269659426e-02, -2.0644434396355210e-01,
          4.3962120230016699e-01, 2.1935500702991706e+00,
          -2.1758677753637712e+00, 3.4034375258536104e-01,
          -3.0334353060437219e-01, 9.0107368368571128e-01,
          4.4441074740382114e-01, -1.1096929826508414e-01,
          -1.4590832593414282e+00, -8.6867142331836511e-02,
          9.9094618015497082e-01, 3.6792374381052297e-02,
          -1.5715361445237108e-01, 8.9947526495236293e-03,
          -8.2900091347839159e-03, -3.5731222116835565e-01,
          -5.2654957483334458e-02, 7.1799802402345250e-02,
          -8.0346870872308018e-02, -5.5956327272465101e-01,
          -2.8421307219811365e-01, -1.8339420454979743e-01,
          6.5441811064495439e-02, -5.1282608081928771e-01,
          -1.0107663751781859e+00, -2.0964936871303022e-01,
          -7.5554566174172694e-02, -1.2345005725524125e+00,
          6.3926096958364031e-01, 4.6804576911703474e-03,
          5.6473582893642948e-01, 4.8853175124959336e-01,
          -2.0457042028037259e-01, -1.8792541293008724e-01,
          -6.9100503398107263e-02, -6.6281557942062516e-02,
          -4.0610707326067408e-01, 2.0574356389704831e+00,
          -3.1391173403134565e-01, -3.9209847794854251e-02,
          1.7371593577162475e-02, -4.7111352469173730e-02,
          -1.5317022372293780e+00, -7.7693161060880889e-01,
          -9.9530657052010432e-02, -2.4061879536213474e-01,
          2.3851373972939585e+00, 2.9506910258563313e-01,
          -1.7727398688424292e-01, -6.2317118852861475e-01,
          2.5963325415615890e-01, -1.5744939748835790e-01,
          1.6817895766205804e+00, 1.3266932974184803e-01,
          -2.7234702631407609e-01, -9.3200213742992810e-01,
          1.4731609424983647e-01, 4.3913233102786819e-01,
          6.9653774028254090e-01, 7.2079341263212593e-01,
          1.8043308337121866e+00, -5.0548336451435760e-01,
          3.9702719160212840e-01, -3.4574155043953358e-01,
          5.2104505520174726e-01, -5.0126657601844316e-01,
          -1.4676651600384910e-01, 1.9951235387218982e-01,
          3.3719566874227586e-01, 4.6337011732896179e-02,
          -1.4255145001620181e-01, 4.9682289607776250e-02,
          5.3298405271961014e-01, 1.3799905639811799e-01,
          4.2443125348196531e-01, 3.2598440608904861e-01,
          7.5428160513228837e-01, 2.2382374202460115e-01,
          1.5295023243445288e-01, -5.3382485498843046e-01,
          -4.0416402615110886e-01, -1.0530110053981794e+00,
          -1.2794431416033708e-01, 3.9476311673079800e-02,
          4.7154197837735562e-01, -1.6289081470643069e-01,
          -1.5643901915989968e-03, 4.2213708311754659e-02,
          1.0165765171933923e+00, -5.0481474023708828e-01,
          -1.6250160549285526e-02, 9.1900036891655579e-01,
          -2.0604759091381413e-02, -3.1895778840302180e-01,
          2.1171954488586097e-03, 1.2020471648725435e-01,
          6.1889597213923198e-01, -1.0238299908228487e-02,
          1.3787418599328718e-01, -2.8179017024353448e-01,
          8.1908516068828641e-01, 1.3963192785360459e-01,
          1.0439130107336049e-01, 8.3443592540647937e-01,
          -2.4576214503926486e+00, -1.8210327743434009e+00,
          8.1562388878412262e-01, -5.6669763023064770e-02,
          3.9943255079652723e-01, -1.3468853949327817e+00,
          -2.4790841804611379e+00, -1.7059905518560018e-02,
          -1.8198997943646858e-01, 1.8115501209858074e+00,
          -1.8713490789408438e-01, 1.4270628862621274e-01,
          2.2269676188487499e-02, 1.1288216673165603e-01,
          1.5530129368059190e-01, -1.4092101860967673e-02,
          -1.9915238589744817e+00, 5.1971947476116820e-01,
          4.8010967747397471e-01, -1.9154312377074095e-01,
          1.3931137906649038e-01, -4.8010239054316700e-01,
          -7.3863599766757659e-01, 2.1379557730298693e+00,
          5.6657676277996316e-01, 3.3510665869019118e-01,
          1.2667533950369003e-01, -8.9938778814087794e-01,
          -2.5240487596163788e+00, -2.1617442351539187e-01,
          1.7986395675262562e-01, -4.4757940023461362e-01,
          -2.4699444557564023e+00, 5.0717720100175734e-01,
          6.3887816737392189e-02, -5.7366456990782771e-02,
          2.2400871946899023e-01, 9.7487105079111425e-01,
          -1.6227177175052554e+00, -3.7034786332055031e-01,
          3.5388406129048602e-02, -1.8880658700823724e-02,
          1.9110367359472796e-01, -4.5806333118502740e-02,
          1.1254383781651958e+00, -5.1463426661526568e-01,
          -3.4911095764706683e-02, -6.6866999885314482e-01,
          2.8114721447495011e-01, -6.1317494870789579e-01,
          -1.1286462054857663e-01, -8.0652240450444590e-01,
          -9.5524110416595220e-01, 4.8072628275522739e-01,
          9.4917290583244832e-03, -7.7260799559559667e-01,
          7.5585280488246642e-01, 1.6334837789132017e-01,
          1.9009551152278170e-01, 5.7699194188013359e-01,
          -6.2732751494026051e-01, -1.0914593664891004e-01,
          1.3875371697303068e-01, -6.9331757531650676e-02,
          -3.8285382541427532e-01, -4.3012279189431710e-03,
          -8.9118612586190499e-02, 9.4009822173486968e-02,
          3.7171367189613880e-01, 1.1825097707042204e-01,
          -3.6788184925873180e-01, 6.7455727420469264e-02,
          7.3666486557295408e-01, -1.9812355185572961e-01,
          -9.3594454374098701e-01, -3.7823151775789932e-01,
          -4.0010916797103535e-01, 5.5339384833783167e-01,
          -7.5281045148759251e-01, -2.0597848248598463e-01,
          -7.2583502645142087e-02, 1.4872620510090198e-01,
          1.0761844421076088e+00, -3.4257268394889673e-01,
          -2.4641699967369418e-01, 7.1518580907844287e-01,
          1.7589938266405911e-01, 6.6539483514708464e-01,
          1.4309513895713041e-01, -2.1807367618453288e-01,
          -6.9339638088604849e-01, 6.0460412112635264e-01,
          4.5629015346594287e-01, -6.2227190273369280e-02,
          -9.1095126666459011e-02, -1.8921975965260331e-02,
          3.3053463724689575e-01, -2.0885477128874694e-01,
          4.9669836842613370e-02, 2.0463527945124410e-01,
          -2.7220545049239070e-01, 1.7260720269994764e-01,
          -5.5228966735957408e-01, -5.1382770299608926e-01,
          2.0700767712356463e-01, -1.2596533846831917e+00,
          2.0060568344967622e-01, -9.1446463425713942e-02,
          2.0037872266661337e-02, 4.1873633283076983e-01,
          -2.1962522919875019e-01, -1.8882320492860974e-01,
          4.9933997228657344e-02, -3.6739643474897010e-01,
          -3.1405559148600770e-01, 6.2156301494434163e-01,
          -9.1945039107955998e-02, -1.6559490716605116e-01,
          6.4748527071481404e-02, -1.9400367284428821e-01,
          -3.2534204153490981e-01, 3.8254546403222855e-01,
          -3.3107509259889806e-01, 2.2441171153225245e-01,
          2.1461142431856292e-01, -6.7608921523918186e-01,
          -3.3836380014977174e-01, 2.3586223392216543e-01,
          5.2904240770329625e-01, -4.3981329671136915e-01,
          -5.5514539527200202e-01, -7.5820597584337657e-01,
          3.2505534580100713e-02, -2.9068849582556239e-01,
          4.0176034059680499e-01, -3.4780780795232766e-02,
          1.2912463912764721e-01, 3.8806308185514043e-01,
          7.4246743956098649e-02, -2.6897136545979644e-01,
          -9.7923726264319555e-02, 6.9630091907278302e-01,
          6.5397078909537248e-02, -1.4068663180346408e-01,
          -6.0021983243176619e-02, 7.1435312093854975e-01,
          -1.6743403097279982e-01, 3.1282333280428609e-01,
          7.4048652340645504e-01, 3.2444840695238480e-01,
          9.8658286600434589e-02, 6.4312214096350018e-01,
          -3.2801109150668062e-01, -5.7406204582136788e-01,
          3.1842252794428920e-02, -3.8520809706620779e-01,
          -1.1328956756675145e-01, 4.2998738719220236e-01,
          -4.3181359333733092e-02, -3.9214053733412427e-02,
          -6.4521244252123078e-01, -1.4144973633361102e-01,
          -6.5488575634773860e-01, 1.2879609603208642e-01,
          -1.2198262870154704e-01, -5.0085467282894192e-01,
          2.7077558039213362e-01, -2.5855651146490504e-02,
          -2.3197412264978506e-01, 3.5801240316895427e-01,
          -1.0883111592606164e-01, -4.0497524567944997e-02,
          7.3372952873174552e-03, -4.5035607522659304e-01,
          1.5673751327960031e-01, 5.8013925120708265e-01,
          3.9760477894197802e-02, -5.5812563211907834e-02,
          -1.0507669406963632e-01, -8.3261873743248604e-01,
          -1.8986725480046818e-01, -2.8381404665495180e-01,
          -3.8903764761123738e-01, -4.5097901929565226e-01,
          -1.2105822017949086e+00, 9.6822609904577653e-02,
          -6.5689920399717605e-02, -1.7051123410381075e-01,
          -5.5383916305456837e-01, -1.3496886644361655e-01,
          6.3527017896660576e-01, 3.1137205236130061e-01,
          -1.1086488391327304e-01, 1.6611122530631739e-01,
          2.1984717310492791e-01, 3.7154615053700651e-01,
          -1.4985710365657043e-01, 4.4603067956747872e-01,
          3.8995174216983236e-01, 1.0209885461325908e-02,
          -1.5260248847595514e-01, 5.2286821430347696e-01,
          -8.8671993499746013e-02, 4.8113760802060412e-01,
          5.6257780508732536e-01, 7.2501061353626939e-02,
          -2.1838071295208925e-01, 7.0584337256796958e-01,
          5.5806716927643707e-01, 2.0225414791576090e-02,
          -9.4050836249535488e-02, 5.3384195206546227e-02,
          -4.0053720049746250e-01, -6.4490867639661287e-01,
          -6.0575245677384359e-01, 2.8846928531850669e-01,
          -2.1614087448693975e+00, 1.2622158136908171e-01,
          2.4088238822603608e-01, -2.9017690110525413e-01,
          -6.7942577416957084e-01, 4.5996942730412416e-01,
          -4.7183241895512831e-02, 1.5803001898115354e-01,
          5.5655852131184742e-02, -5.8303446139403481e-01,
          -6.5837151902908841e-02, 1.6692746737361988e-01,
          -5.0023535253374563e-01, 3.1228854755732111e-01,
          -1.8006561326325243e-01, 3.2547375992067654e-02,
          4.9403149749766284e-01, 2.9567058189161738e-01,
          9.8004438293901250e-02, -1.1474964037377232e-01,
          2.9344447487084174e-01, 4.8302983816401529e-01,
          2.5851294869563357e-01, -4.0177557678352599e-02,
          -2.6673737908545109e-01, 3.1278941329387200e-01,
          -3.6879689286960099e-01, -1.5398147646621724e-01,
          -4.3198260292457397e-01, 3.1762640622766417e-02,
          4.4832372377196901e-02, 8.6487382683014563e-02,
          9.3263947121445623e-01, -3.2427470162070010e-01,
          6.0799547866688919e-01, -4.8505115425842996e-03,
          -4.1164706612569879e-01, 2.2651684096926630e-01,
          2.1334766860656504e-01, -1.8782480943327344e-02,
          6.8049359516704017e-02, 1.1024764069444525e-01,
          1.9230610284847779e-02, -1.3489129450889537e-01,
          -1.8844514579971719e-01, 8.4909296110293256e-03,
          4.7007213995034697e-01, -1.4546665027018069e-01,
          8.2004067875267550e-01, 3.5829738548259571e-01,
          4.7091305582500859e-01, 2.3566020342910796e-01,
          1.9527375027756880e-01, -2.7978489296158898e-01,
          -3.6548607908834235e-01, 2.6876932309063056e-01,
          7.1362167990926720e-02, -3.0746077887284239e-02,
          -1.2353853237430584e-01, -1.9439970644014218e-01,
          -6.0638991905025121e-02, 6.8641890900529592e-02,
          2.0905724698183970e-01, 7.7491850507740490e-02,
          1.6219719891642359e-01, -1.5825385272257853e-01,
          -8.0646418671046660e-01, 8.1545208822438903e-02,
          -2.2759182332404693e-01, -2.2600990539913790e-01,
          -2.6028904958893462e-01, 8.8745059492800579e-02,
          -6.6440465678692273e-01, -1.9169397885206213e-01,
          2.8070246824030570e-01, 1.0067759864250819e-01,
          -5.3979403394954606e-01, 4.5281491223951970e-01,
          1.5386528658116854e-02, 3.4793199530268487e-01,
          4.6638034520508513e-02, -2.9991872910745682e-01,
          -1.3238356819187350e-01, -4.1856841510123483e-01,
          -1.3063885341832163e-01, -2.2862242482573678e-01,
          1.2682513495177963e-01, -5.2049322054007607e-01,
          -1.4062301773008323e-01, 1.3782071027488893e-01,
          9.8887928629018240e-02, -6.4058157960271478e-01,
          -1.6939542942010263e-02, -2.7483366502582696e-01,
          5.3357883798344219e-01, -1.6593990010285437e-01,
          1.4040206264736194e-01, -2.6109809525638189e-01,
          -1.5630155303532480e-02, 2.1596930848394169e-01,
          -4.1381315199757118e-01, 1.3119899355049380e-01,
          -2.4932579372066907e-01, -8.8669568292309583e-02,
          -7.6187666658352748e-02, 3.3162988556638584e-01,
          -4.4295772588663956e-01, 1.8495464921149774e-02,
          1.9041425097733508e-01, -6.6445699329813798e-02,
          5.3184376508106856e-01, 4.0001881791945482e-01,
          -1.2278618526360435e-01, -6.1489158451339211e-02,
          -2.7592353805826747e-01, 2.8444333036932828e-01,
          5.1548390302275787e-03, 2.9123178306284797e-01,
          1.4809822524739355e-01, 9.6153540512563165e-03,
          1.4767339313176503e-01, -4.1179822701425983e-01,
          3.0700917318905541e-01, 2.0428957349962298e-01,
          -3.1900537556819608e-01, 6.7847035186163263e-01,
          3.8929967145569550e-01, -2.7285123165456726e-01,
          7.4478727186002169e-01, 2.4755910877594317e-01,
          -2.3008471088488527e-01, 5.8663706250693816e-02,
          -2.7351940563605887e-01, -2.7948960586468258e-01,
          -1.0222541996747554e-01, 1.2729733214232583e-01,
          -3.5642389877922544e-02, 4.1554023943108298e-01,
          -5.3506259807697687e-01, -1.8383577523103117e-01,
          -3.9179786830739714e-02, 2.0288232495234834e-01,
          -8.9320523302604538e-02, 2.3662980830111593e-01,
          -1.6467722424087836e-01, -9.6807621106760597e-02,
          1.0199578614742864e-01, 3.3427058653314634e-02,
          2.6043666338294624e-01, 4.3399129475599901e-01,
          -1.0659275216258639e-01, -1.1860839735165916e-01,
          2.2900550801846782e-02, -1.2078135814371697e-01,
          -1.2804420911332046e-01, 6.3777505594648021e-01,
          4.6071795380565111e-01, 1.5483786826800747e-02,
          5.0617625452616066e-01, 5.6224078401552913e-01,
          1.7290732365140560e+00, -2.8107244856880825e-01,
          -3.4722603159846231e-02, -1.7571230013195577e-01,
          -1.1312716440505338e-01, 1.8607792968535264e-01,
          -3.5252991746409036e-02, -5.2693846702137948e-01,
          -4.4004720119952617e-01, 4.2468221953962254e-01,
          1.9919440287200274e-01, 3.3613250254822086e-01,
          1.4250265338501619e-01, 7.4902831584919627e-01,
          -2.9882550044025341e-01, 7.5182615126443719e-01,
          5.9101644897211203e-01, 7.9794054659136826e-01,
          6.8388811147525186e-01, -3.9748534094946358e-01,
          6.7408495088350240e-01, -7.0169086278873349e-01,
          3.4458710394544573e-01, 4.5947426873149871e-02,
          1.1304292509995095e-01, 5.7867875728761153e-01,
          -6.0559180468333536e-02, -6.6086661693866910e-01,
          7.4384945075473441e-01, -1.5277538822377409e-01,
          5.3832017629551376e-01, -1.8451457466332347e-01,
          -1.7864192017670880e-01, -1.2129051610590514e-02,
          2.2588002027148824e-01, -2.5335636031161063e-01,
          5.6579910007222989e-01, -2.3291641215329842e-01,
          -1.9227093032013184e-01, 9.6845296467511499e-02,
          1.2366370969474973e-01, -2.6146785216747304e-01,
          -6.5023886430076805e-01, 5.6900788965641581e-02,
          -5.4904374529933031e-01, -2.5947346335512184e-01,
          2.6179532982400178e-01, -6.1310615378779199e-01,
          -3.2809992246989952e-02, 7.8502535530721873e-01,
          4.6418979894679813e-01, 1.0313971437542328e-01,
          4.0905422087622401e-01, 4.4917293445655376e-01,
          9.4368844062464027e-02, -1.5089482861776105e-01,
          3.2442401201100590e-01, 2.5812423360377523e-01,
          4.0112292167915076e-01, -1.7906874432074196e-01,
          2.1836048109651285e-01, -4.9108878496073914e-03,
          9.6462584196438148e-02, 6.2993686568572627e-01,
          -1.9727114062735243e-01, 2.6397249876210982e-01,
          3.3736441964168173e-01, 6.7436310383212739e-01,
          1.3171808826015069e-02, -2.6627040981143296e-01,
          -4.0879488681835920e-03, -5.5222508282415692e-02,
          9.3331619435163229e-02, 2.6751979588770797e-01,
          -6.7804171711574365e-02, 6.2993625810622150e-02,
          -6.4650681277179001e-01, 2.0886712402568300e-01,
          2.0533624302191367e-01, -4.6637866061887190e-01,
          -3.1525327106597123e-01, 7.7106720768739090e-02,
          -4.2244604566803773e-01, -8.7445978385593176e-02,
          -3.8534684569781555e-02, -4.9366581955531169e-01,
          -3.0384943070071024e-01, 1.0523438104051946e-01,
          -4.0283539263114748e-01, -7.4846954572408775e-01,
          -5.6177106564192947e-01, 1.8546758892269780e-01,
          -9.0846458950347297e-01, 3.7332674632173224e-01,
          8.0144704795509739e-02, -6.7189884221302798e-01,
          1.9538918407661471e-01, -6.0164964250902134e-02,
          6.4144243123139022e-01, -1.0232964661982398e-01,
          -3.2087094140448030e-01, 5.4095744119676215e-01,
          3.6288154726900901e-01, 2.3954178028434384e-01,
          -6.8067186301110782e-01, 1.7404483136641305e-01,
          -1.7842560558943052e-01, -4.8737427863319716e-01,
          -1.8217503760641858e-02, 6.7332629874369998e-02,
          -4.5359042157482286e-02, -1.6170026540202670e-01,
          5.1528929579301808e-01, 1.4787613381536793e-01,
          9.1269671306238587e-03, 4.6109675217569851e-01,
